145 180
the 0.0038812715 0.0030697687 -0.00011771711 0.0038414497 -0.008551728 -0.006566338 0.010429849 0.0090997545 -0.0050808014 -0.003343404 0.0053513376 -0.00028605474 -0.0011803388 0.0030917411 -0.005104302 -0.00086765934 0.0028230054 -0.0036568386 -0.008377408 -0.006792388 0.005998036 0.0025948563 0.004831998 0.0019483397 0.0067593227 -0.0072165034 -0.0026603881 0.005468865 -0.008933639 -0.0058295927 -0.005148039 -0.0030921688 0.009418246 -0.005753766 0.0058058756 0.0012325485 0.0061171167 -0.0046136095 -0.0040812977 0.0003416053 -0.0067778104 0.004480831 -0.009329849 -0.004495418 -0.0005910592 0.0033017674 -0.0086108465 0.01372082 0.0019393556 0.009542707 -0.0034056618 0.0042798016 -0.0065621156 0.0024540953 0.006188153 -0.0006750543 0.0016395764 -0.010113503 0.0009752573 0.0013046181 -0.0054543507 0.0038780922 -0.0011507552 -0.002083143 -0.0016563376 -0.0018097534 -0.0016459838 0.008649291 -0.0060702744 0.0017977953 0.00999817 0.006765669 -0.004363912 -0.007591822 0.003919329 0.001478201 0.00508509 0.0016265572 -0.0057196296 -0.0049761916 -0.0040508634 0.0019060293 0.0060231253 0.0072968644 -0.004159064 -0.0007752378 0.0018168711 -0.0015415195 0.0016790421 0.0016333387 0.0064727217 -0.0025999222 0.0007366205 0.0027530666 0.0076248716 0.01369328 -0.008065077 -0.006061252 -0.0033289779 0.0023254096 -0.006665515 0.0037594894 0.0019130067 0.0024425406 0.0031630944 -0.0027131315 -0.0015054853 0.0031925268 -0.0023066592 -0.0036047704 0.00089371414 -0.0028738761 0.0039191176 0.009767155 0.002725657 0.01116579 0.007922281 0.0020558396 0.0041690646 -0.0053113624 0.0007411686 -0.0037554782 0.0073860153 -0.007543511 0.0050963727 0.004396186 -0.0012406064 0.0034720167 0.0009834287 0.001453482 0.0063563655 0.00036202022 0.0015007182 -0.008803522 0.001869824 -0.004128235 0.0062970216 0.0023390157 0.005524237 0.0024656223 0.003591611 -0.005959069 -0.0071460116 -0.000657525 -0.0030384392 0.005756133 0.0014361095 0.0024812755 0.0017156304 -0.0010282886 0.0030320913 -0.009116598 -0.00024259283 -0.00035774012 0.0012934493 0.002397372 0.0062620193 -0.0012413085 -0.0072392314 0.007476228 -0.0042672805 0.00066313025 -0.0039779274 -0.00033491626 0.0011744435 0.00068318704 0.0070259394 -0.0068913773 0.0013393008 0.00758073 -0.002403969 -0.0051457146 0.0032618851 0.0040182923 -0.0023281332 -0.0027543055 -0.0042578224 0.00048826265 0.004051944 -0.008851394
to -0.0017616668 0.004270177 0.00014027624 -0.004472435 -0.0021205274 -0.003454439 0.0052951784 -0.0021933117 -0.00038130698 -0.0035905843 0.0014501658 -0.00033876437 0.002515008 -0.004834656 -0.0033607543 0.0018694623 0.003908854 -0.004490673 -0.008080406 0.001514114 0.0015183466 0.0014853862 -0.0032319434 0.00010925364 0.0066351052 -2.463223e-05 -0.003546124 0.0034991016 -0.008506972 0.00055966206 -0.0031374893 -0.003759754 0.008536581 -0.0009027323 0.009619362 -0.0013384402 0.00432815 0.004872267 -0.00784794 -0.0005226368 -0.0050672973 -0.0013183859 -0.0056178453 -0.006322844 0.0038345319 -1.5813013e-05 0.0011868713 0.009289784 -0.004488469 0.005780284 0.00395883 -0.002871604 -0.0074757077 6.593526e-05 -0.0035638693 0.0005093663 -0.00083781284 -0.0031606897 0.0029412403 -0.0035889004 -0.006780733 0.0039011533 0.00039837463 0.005626289 0.0014890265 5.163905e-05 -0.0001747629 0.002862057 -0.006212937 -6.745777e-05 0.006548513 0.0004180505 -0.0065808594 -0.006513681 -0.003663336 -0.0026335341 -0.00011638562 -0.0006137028 -0.006849457 -0.002290598 -0.00054239377 -0.0019309308 0.006936636 0.0035023734 -0.0044903294 0.0036787984 0.0028653916 0.0040011974 -0.0012110131 0.001282536 0.0066609317 0.00068631716 0.0011604237 0.0030888256 -4.304194e-05 0.013192769 0.0027916147 0.00023503749 -0.004747884 -0.0009249717 -0.00087581284 -0.0033551448 -0.005333747 -0.0005044674 -2.3366476e-05 -0.0024575922 -0.004303983 -0.0040133977 0.0040377164 -0.00013117839 -0.0015801643 0.004524718 0.010714484 0.0025399781 0.005083798 0.008673015 0.0066298377 -0.0015406236 0.009715352 -0.0077067795 -0.0048098653 0.004292671 0.0016874244 -0.002698216 0.003400378 6.806785e-06 0.0027997813 0.0045986194 0.0048289583 -0.0059968755 0.006062362 0.0049143173 0.003385893 -0.007872181 0.0043927208 -0.005861399 0.0068070814 -0.0039902846 -0.0041999444 0.0016391603 0.00039277718 -0.0026724588 0.0034732802 0.004734306 -0.0065705813 0.0025272612 0.0019197038 0.0047390675 0.0018271316 -0.0013404357 -0.0008211256 -0.005234475 -0.0040995437 -0.0034326059 0.0033966936 0.003119646 0.00619646 -0.0069159246 -0.010392478 0.00781322 0.0025141274 0.0018383771 0.0024064078 0.00041375833 0.0032867892 -5.9511596e-05 0.0035866662 -0.0039888714 -0.0042039985 0.0017382078 0.0020708418 -0.00030447377 -0.0050803646 -0.0049432945 -0.0050549307 0.0006457409 0.001106329 0.006771857 0.0041458253 -0.0075835558
of 0.004032705 0.005328217 0.0015625736 -0.0016324923 -0.00090618053 -0.0057107373 0.00577393 0.008458105 -0.0034399426 -0.006378717 0.0042750933 -0.0013003622 0.0005035306 0.004958534 -0.0034170267 -0.0021234963 -0.0019401272 0.00010284132 -0.0064555383 -0.00029623328 -0.0012517491 0.0029713868 0.0032736964 0.002548472 0.0020228617 -0.00646122 0.003158857 0.005165667 -0.005687788 -0.008588773 -0.0048936564 -0.003041282 0.0037620976 -0.0028677077 0.011924064 0.002446199 0.0049623926 -0.005129841 -0.0051228083 -0.000378915 -0.005213422 0.00224899 -0.008413282 -0.0029302803 0.0014628808 0.0065136803 -0.0034291206 0.00889678 -0.0030714683 0.00801294 -0.0024181167 0.00405227 -0.0085417 0.0031135953 -0.0015521393 -0.0005677913 -0.0026076613 -0.0032002204 0.0055841357 -0.0063317786 -0.0039536655 -0.0009903423 0.0053379824 0.007398785 -0.0023114218 -0.002781959 -0.0010811028 0.008111557 -0.009067599 0.0009865056 0.010563123 0.0034524798 -0.0026755482 -0.007713194 0.0062846933 -0.0028350065 -0.0007343808 0.0037494283 -0.0043571386 0.0006717762 -0.0021414505 -0.0037814819 -0.002615422 0.00804537 0.0027902715 -0.005725883 0.0004610776 0.0013235878 0.005539357 -0.006090385 0.007757035 -0.00026340396 0.004269572 -2.433242e-05 0.0010451254 0.0062202895 -0.008711261 -0.00735474 -0.0043710447 -0.00472031 0.0012353727 -0.0021500802 0.00051192776 -0.00025078552 -0.0028967788 0.00033169598 0.003613328 0.005012032 -0.0032471041 0.004793515 -0.002119238 0.0050024483 0.004759778 0.007753986 0.002616894 0.0104464 0.00253081 0.0027967528 0.009925153 -0.010066435 -0.0049181795 -0.0052984203 0.0035590695 -0.0036476469 -0.002853628 -0.001873382 0.006077768 0.0020307947 -0.0031455755 -0.0045635775 0.002820789 5.728184e-05 0.004381313 -0.0074372115 0.0010709892 -0.009916224 0.005721003 0.0017745326 0.0007015097 -0.0015026901 -0.0054690107 -0.0009980778 -0.0026700678 -0.005837411 -0.0068044784 0.0006127458 0.00076644804 0.005177303 -0.0027419736 -0.00564095 -0.004302396 -0.0047453865 -0.004332352 -0.007765107 -0.00031050187 -0.006940242 -0.0021637126 -0.007504711 -0.0077110706 0.0017864752 -0.004644234 -0.0018879926 0.0032874132 0.00676306 -0.004691582 -0.004038563 0.0041825892 -0.008659696 -0.0020700349 0.007169991 0.0028295382 -0.005243693 -0.0022144846 -0.004318736 -0.0016767128 0.0062760385 0.002929834 0.004770078 0.003844564 -0.0081149945
and 0.008721659 -0.0016802987 -0.006509079 -0.0021419814 -0.0032057124 -0.003962037 0.004936445 0.0076007573 -0.0021383637 -0.0018559607 0.0023628732 -0.004058433 0.0057073957 0.00415666 -0.007292424 0.0018574963 0.006536455 -0.0074881506 -0.006682359 -0.0053433883 0.0063921884 -0.0006567083 0.0056274952 -0.0037556237 0.0046882476 -0.00287084 -0.0012000381 0.003257607 -0.008248677 -0.008081197 0.0006467326 0.0015097662 0.0079994 0.0016507847 0.0052158465 0.0067326357 -0.003677148 0.001276507 -0.0029888817 0.0043125185 0.0031757422 -0.0023100388 -0.00062049803 -0.0069479356 -0.00089953194 -0.0020346157 -0.006276053 0.011914743 -0.0018572598 0.005133063 0.006066151 0.0063841967 -0.008191057 -0.0001077884 0.0066656033 0.0044523953 -0.0017129267 -0.010069278 0.0038333524 -0.006908308 0.00072775723 0.0006351071 0.00027766434 0.0024903584 -0.00080851576 -0.0019343789 0.0023736535 0.0042969543 -0.005678512 -0.00043899406 0.009194892 0.002717514 -0.0031933142 0.00285818 -0.0012916034 0.00013959073 0.0059648557 0.005275082 -0.0026008235 -0.0051731397 -0.00205472 -0.0012335764 0.0074859858 0.0033258721 0.0002736708 -5.9849204e-05 -0.0024471488 -0.001968823 0.0024965724 -0.0028637515 0.008394443 0.0027673885 -0.0014327555 0.0038585945 -0.0015526977 0.009758897 -0.0065094135 -0.006528528 -0.0065151015 -0.0059476234 0.002696114 -0.0019752001 0.003714047 -0.004540746 0.0011960049 0.0059589823 -0.0061440896 -0.0056351023 -0.002943381 -0.0016756101 0.00081515126 -0.0036598863 0.0010558512 0.006261468 -0.0037637507 0.00057064457 0.0020539504 -0.0067380276 0.0011739145 -0.008532632 -0.0005599271 -0.0033103586 0.0055308677 -0.0007650321 -0.0010831734 0.005889313 -0.002177339 -0.0017401035 -0.0021699404 -0.0043060435 -0.000119259304 0.006043964 -0.00013193257 -0.0017613498 0.0035616509 -0.0086925095 0.004481946 0.0025770825 -0.001463879 0.0013452842 0.0028212152 -0.0051142066 -0.005538231 0.001035495 -0.0020779083 -0.0023194386 0.0037543043 -0.00018523603 -0.0029128168 -0.0016230548 -0.0028968693 -0.0028832478 -0.0021105262 -0.0022442252 0.0009769864 -0.0013785011 0.005496473 -0.007083237 -0.006323117 0.0055806325 0.0049398458 -0.0034342106 0.00366871 0.00667447 -0.0031486042 -0.00148347 0.0045097047 -0.005033004 -0.0056754104 -0.00045682467 -0.00066688843 -0.0005326894 0.0026857653 -0.0010348902 -0.0017902722 0.002234542 0.0025057425 0.0015379402 -0.0025086552 -0.010596601
in 0.0031549374 0.0058553685 -0.0014483585 -0.0056118364 -0.0071698963 0.0017754408 0.0031511893 0.0066826358 -0.0055702934 0.0037665833 -0.002871639 0.0024902315 0.00042596218 -0.0043120664 -0.0037440504 -0.0003078877 -0.0024042747 -0.0038380946 -0.007204833 0.0002636845 0.006712036 -0.0014242756 0.00030202922 0.0030117168 0.0074676084 -0.007326145 -0.0053219073 0.00011962555 0.0014407524 -0.002135904 -0.005573758 -0.0027577705 0.008533421 -0.0054544997 0.0024366393 0.007381456 -0.0036268262 0.0011050625 -0.0024755886 0.006114865 0.0035238396 -0.00018015916 -0.0057667075 0.0034158307 0.00052248314 0.006040808 -0.008533485 0.011785666 -0.0012338149 6.328652e-05 0.0026604915 0.0011953904 -0.0006071769 0.0003340001 -0.0011580265 0.0026646268 0.003937887 -0.007766673 0.0034416725 -0.0073579354 -0.0072790147 0.0028455749 -0.0041234195 0.0032110983 0.00036604522 -0.0036923555 0.0017262793 0.0095941415 0.0013687272 -0.0005659073 0.0064101885 -0.0005534353 -0.0074133812 0.0014507615 0.0003147799 0.0005958623 -6.3447136e-05 -0.001092498 -0.00080242497 -0.0025092503 -0.008032264 0.0053143906 0.0047922335 0.0077122604 0.002882977 0.00024488132 0.004211013 -0.0016338422 -0.0012613573 0.00070411013 0.006522508 -0.0052470085 0.0044605476 -0.00016214962 0.007120711 0.008778076 -0.0061159213 -0.0029500464 -0.0072698193 -0.002457167 -0.0007758139 0.0066455803 0.004444169 -0.0042472337 0.0011673503 0.0018169899 -0.0030374732 -0.005191788 -0.00012376299 -0.0047210217 0.0044649625 -0.002104682 0.008301376 0.01001151 0.0004927181 0.007945161 0.0019360967 0.002432949 0.006895012 -0.008768047 -0.0016638205 0.0011700157 0.0019458645 -0.0021501402 0.00037636788 0.0014078466 0.0016199057 0.003065408 -0.0007055684 -0.0037409426 0.0007731441 0.0024155888 0.0012533797 -0.006876807 0.0019645083 -0.0056183557 0.0029671798 -0.00019264845 0.0036035695 -0.0059880028 -0.0041660513 -0.004106187 0.00355301 -0.0015967367 -0.00628016 0.0008245246 -0.003810676 0.005972218 -0.0047193877 9.108575e-05 -0.0060767317 -0.0023139652 0.0032958882 0.0024989827 -0.0030835911 -0.0051610162 -0.0028341168 -0.008103027 -0.010639069 0.001034543 -0.0002525496 -0.005089724 0.002678162 0.002700973 0.0025595606 -0.0009982546 0.0027160652 -0.0070442315 -0.0035184307 0.0052820886 -0.003204932 0.00048792534 0.0018097191 -0.00055153255 0.0041998723 0.005466251 0.000935196 0.005328422 0.0044098217 -0.008491022
a 5.9725622e-05 -0.0016707928 -0.0064596036 0.0037920754 -0.0038962106 -0.005719309 0.002767011 0.006234161 -0.0033174385 -0.0029557568 0.0017638943 -0.0010308196 0.00010449429 9.195611e-05 -0.0033713374 0.004980139 0.002846812 -0.008649018 0.00088963594 -0.004795785 0.0018969884 0.0023733187 -0.0023099096 -0.00021567209 0.006875952 -0.0062526986 -0.0057966397 0.0071083875 -0.0046207244 -0.0053328867 0.0041065826 0.0006345562 0.005789706 0.0039503262 0.00052353163 0.004889861 0.0024757765 0.0015246508 -0.0019038767 0.0045808083 0.0014874865 0.0046694838 -0.005307317 -0.0039553046 -0.0005985792 0.0040539023 -0.0050297887 0.009586621 0.0016590379 0.007468043 0.0023309807 0.00561533 -0.003966594 0.0060814884 0.0030875856 -0.00283682 -0.0029811487 -0.0063883895 0.0046328404 -0.0034902047 -0.0052827806 0.007359079 0.006052522 0.0010217893 -0.0035146216 -0.0050051985 -0.0037657022 -0.0014199797 -0.0026779259 -0.0019698623 0.0068858913 0.0048217024 -0.0048328973 -0.0074430574 0.0020286667 -0.0031714507 0.0020469415 -0.0005524554 0.0008362638 8.190647e-05 -0.0004131766 -0.0014525946 0.0011956284 0.0067683225 0.00010809028 -0.0046227043 -0.0056963544 0.0017472288 0.005779059 0.0015778674 -0.00077134575 0.0026521897 0.0012357975 0.006312742 0.0070807836 0.004247948 -0.0074157957 0.0016549072 0.002223268 0.0010619728 0.0025889515 0.00035937203 0.0037427738 -0.005766734 -0.005115303 -0.0029786634 -0.0035050204 0.002733426 -0.0027525937 -0.004874974 0.0055164373 -0.0008212266 0.009900599 0.0019945423 0.003013162 0.008063508 0.0045587905 -0.0030827168 0.0060371375 -0.008331928 -0.002215598 -0.002174137 0.005761507 -0.0036850153 -0.0028921997 0.0045028813 0.0008119988 -0.0010721518 0.0054124407 0.0006078432 -0.0012856937 0.002706795 0.0063002612 0.00029297624 0.0034444043 -0.0016129116 0.0032107008 -0.0016919693 -0.0031500605 -0.0026550447 -0.0014388514 -0.0018421987 -0.0048798467 0.0037091044 -0.0048855715 -0.0029914195 -0.0029832935 0.0018326716 -0.0037178567 -0.0012633572 -0.004119027 -0.003605754 -0.004374423 -0.0008667428 0.0027723378 -0.0018850919 -0.0023418728 -0.004379169 -0.0012969625 0.0043904614 -0.0045327204 -0.002875007 0.00038537045 0.0031442966 -0.0059273485 0.001061158 -0.0029288933 -0.006776864 -0.00036578136 0.00094366196 0.0016046416 0.004700811 -0.0016679601 0.005427466 -0.0004589075 0.006170521 0.0030356867 -0.003709097 -0.0010153364 -0.00147467
for 0.0057560382 0.0067834915 0.0019033158 0.0038166095 -0.0077269166 0.00082212326 0.0016337452 0.0046267803 0.0019337737 0.001660547 0.00477282 0.0011334681 0.0001911848 0.0027226603 -0.0046965363 8.76768e-05 0.0059590098 -0.005773338 -0.00020233332 -0.0053187455 0.006772601 0.004452118 0.0014351297 0.003625276 0.003001899 -0.00696555 -0.0021125406 0.0050927717 -0.005467544 -0.0044841985 0.0021464776 -5.2763582e-05 0.0015926058 -0.0027156137 0.00767298 -0.0016210352 -0.00056716305 -0.004332249 -0.00478409 -0.0030342494 -0.003436609 -0.0034798407 -0.0021901166 -0.0060677575 -0.005760157 -0.0022620086 -0.00647557 0.009204963 0.0015107761 0.0029377046 -0.0007305754 -0.0031388216 -0.0023672867 0.0017176239 0.0009545349 0.0017995388 -0.0001395942 -0.0043151425 -0.0027959645 -0.0056628673 -0.0076527456 0.0017014176 0.0015895556 0.005669509 -0.0016905809 -0.003239285 0.0044176546 0.0033189207 -0.004279345 0.0051152403 0.00605843 -0.0016309504 0.0014675164 0.00066153385 -0.0028878835 0.00022886113 0.0010242175 0.004628989 -0.0034745974 -0.0017116972 -0.0011449474 0.00076847733 0.0025013045 0.00071066414 -0.003998549 0.003046504 0.0031162275 0.0053834696 -0.0028158913 0.0002033392 0.0016250554 0.0035272154 0.00069797976 0.004458693 0.0026517198 0.010584373 -0.00508358 0.002795071 -0.003945376 -0.0032779025 -0.0021456701 0.0065124556 -0.004341243 -0.0015508274 0.0032168082 0.0006255976 -0.0046719923 -0.0036786285 0.0043695406 0.0032268947 0.0035652781 -0.00093399134 -0.00063350616 0.0059260465 0.004514571 0.0014153861 -0.0016396223 -0.0028309806 0.0011108057 -0.004601889 -0.0014117104 -0.0034761664 0.006826457 -0.0065053576 0.0034702912 0.00473299 0.00030815246 0.0056833983 0.006822094 -0.0042731515 -0.0027689857 -0.0017835621 -0.0031751455 -0.005178339 -0.0031661019 -0.008014152 0.0020087366 0.0010527178 0.0036423716 -0.0034893784 -0.0029200914 -0.00051865465 -0.0009302246 0.0041459724 -0.00083569577 0.0049844775 -0.0056684325 0.006794193 -0.0008512826 0.0034351482 -0.0053134696 -0.0016003944 0.00031046095 -0.0014301151 -0.0018691861 -0.006656876 -0.0033733372 -0.007248343 -0.003436559 0.0022710317 -0.0006943998 0.0028875715 -0.002220646 0.0009007307 -0.005531462 -0.006910524 0.00667129 -0.0055322344 -0.005491015 0.005251368 0.003259618 -0.003988705 0.0007033555 -0.0031319452 -0.0003931731 -0.0015712167 -0.002061315 0.0024852501 0.0054391595 -0.00080672593
is -0.0038015223 -0.0019826267 0.0031819066 0.00068606297 -0.0038896697 -0.0007822944 0.008218483 0.0010553512 -0.006253694 0.00031160057 0.0040160893 0.00374935 0.002789205 -0.0033643628 -0.0011821259 0.0001906664 0.0027641726 -0.006215697 -0.0060419417 -0.00045547716 -0.0040127644 0.003348898 0.00014133412 0.0060399263 -0.00156912 -0.0023370134 0.0034438327 -0.00094650296 -0.004651468 -0.0005942571 0.0011635439 -0.0024642642 0.0054444545 -0.005028944 0.0047614486 0.0015002516 0.0056915856 0.0028652078 0.0023134663 0.0055810055 -0.005909025 0.0058599086 -0.00619014 -0.0023205213 -0.0030468036 -0.0013018312 -0.0063569997 -0.00098399 -0.002804631 0.0009403799 -0.002498757 0.0039738417 -0.006964231 -0.0020691496 0.0059125023 0.004725281 0.0039711455 -0.0002928036 0.0013775157 -0.0048904847 0.0013644308 0.003095919 0.004688717 0.004457783 0.004046021 0.0035595316 -0.0059102788 -0.0017183963 -0.0011139275 0.0037343 0.007146836 0.004104167 0.0028834054 -0.0040016756 0.0043763765 -0.0019029825 -0.004645074 0.0059196954 -0.001066101 -0.0016616787 -0.002990335 -0.0021850916 0.003976355 0.003974002 -0.0017562484 -0.004758504 -0.002596213 0.00022728446 0.0046096216 -0.002348115 0.0021967324 -0.00059340324 -0.0045827026 0.0021955073 0.00014098898 0.006037002 0.001276752 -0.0017373345 -0.0032372593 0.0038879742 0.0021229251 0.0044776043 0.0021662114 0.00457193 0.0039533665 -0.00016840074 0.0037987498 0.0025672608 0.0028024702 -0.0008894194 -0.00069331954 -0.0017275522 -0.0017200769 0.0042308094 0.0055044317 0.007887805 0.0007320551 0.0026505536 0.0046841116 -0.0043955385 0.0009351887 -0.0033504227 0.005354775 0.002060411 0.0022249976 0.0033775796 0.0055084634 0.004577412 0.0004017153 -0.0048321863 0.0052499087 0.0052822325 0.0016874169 -0.0030653132 -0.0034189264 -0.004712631 0.005774436 -0.0022108643 -0.003259928 0.0042386465 0.0039867815 0.0042085866 -0.00023918624 -0.005098773 0.004233452 -0.0016915486 0.0023897395 0.0039622216 0.005811465 -0.005895974 0.0045966287 -0.006787853 -0.003948427 -0.0058802296 -0.002674396 0.0031767143 0.0055655795 -0.003657544 -0.0006181107 -0.000907803 0.004717069 0.002758049 -0.00059090817 -0.0010451834 -0.00446748 0.0016947422 0.0020125955 -0.0030129934 0.0033050843 -0.0005736704 -0.0052005257 -0.0013425286 0.00017836336 -0.003421605 -0.0039178813 -0.004358082 0.005009379 0.004866412 0.00035756337 0.0013466661
their 0.007613054 0.0016373274 0.0014035304 0.001286952 6.31759e-05 0.0019393876 0.0021754105 0.001955753 -0.0014627454 0.0014675705 0.002598677 0.0031082171 0.0037219569 -0.0053565907 -0.0034691086 -0.0037157992 0.006107202 -0.0003720389 -0.0025580493 0.0013320307 -0.0027922061 -0.0036446399 0.002461299 0.004578811 0.004786776 -0.00064908585 -0.0027425631 0.00011404054 -0.0034964823 -0.0045248093 -0.0035044963 -0.006158716 0.006820156 -0.0019192791 0.0041918345 -0.0024594532 0.0064794007 -0.000267577 -0.0017723963 0.003645663 -0.005011363 0.0022265846 -0.001894899 -0.0063566896 0.002157611 0.003969745 0.0010227631 0.009066692 -0.0023295907 -0.00080024224 0.0047533778 0.002357142 -0.00025364736 0.005102763 0.0019698092 -0.0021212455 -0.0007235537 -0.00031433866 -0.0014619525 0.002289706 -0.0075005903 0.005340298 0.0022017283 0.0059351535 -0.0033365928 -0.0049922126 -0.0045355354 0.0058180457 -0.005870366 0.005187281 0.0028798312 -0.0033445905 -0.0053055948 0.0014677257 -0.002233231 -0.0023520736 -0.0031591426 0.0048913676 -0.0010486123 0.001269868 -0.0043852115 0.003441992 -0.001098927 0.0016661461 -0.0037782835 -0.0020410724 -0.0022514903 0.0056208153 0.00242121 -0.0063958126 0.0010801468 -0.0060573495 0.00031193346 0.007306295 -0.0015430416 0.012735864 0.0022046969 -0.005698686 -0.007938249 0.004366022 0.0033792485 -0.0012983038 -0.004461409 0.0038052294 0.0011401932 0.0050979494 -0.0058120033 -0.0052663865 0.00022424024 -0.0056557464 -0.0016560873 -0.00087136566 0.010753622 0.00941635 -0.0008533378 0.008680623 0.0077196737 -0.0030242258 0.009891391 6.7895726e-06 0.0008416784 -0.0028024474 -0.001086969 -0.0031358262 0.0052587907 -0.0011257672 -0.0004506957 0.0059297746 0.003536346 0.0018608241 -0.003661682 0.0020115357 0.00446446 -0.0066922116 0.003738334 0.0007946309 0.0017294966 -0.0020439834 -5.4886747e-05 -0.005594709 -0.0051558414 -0.0022736308 -0.00325315 0.0019539995 -0.0049151755 0.0041791764 -0.0051004225 -0.0017916216 0.0052284645 0.0035235567 -0.0032092913 -0.0010833935 -0.003542637 -0.0067751906 -0.0018006908 0.002219543 0.004465369 0.0017914426 -0.0012267681 0.006006536 0.0012065185 -0.006511951 0.0014010506 0.001666523 0.002776203 -0.0006611414 6.18616e-05 0.001522604 -0.0016033599 0.0028646672 -0.0030385489 -0.0049076984 -0.0041409684 0.0051366286 -0.0063837892 0.005883483 -0.0052688993 0.0013362374 -0.00010015513 -0.009972917
s 0.0069716456 0.0052500996 0.000120469456 0.0021280018 -0.0017753036 0.0039555593 0.007291405 -0.0033690266 -0.003659974 -0.0013008087 0.002267325 -0.00192031 0.0014954453 -0.0047812643 0.0001637626 0.0029700978 0.0032782198 -0.0039432705 -0.0066886083 -0.005980917 0.00056998705 -0.004167612 -0.003332966 0.0038672448 0.0058059054 -0.0016345305 -0.0053862818 -0.0020545155 0.0018216295 0.00022014315 -0.0035159518 -0.005560701 0.0028352495 0.0011180151 0.004863776 0.0031525055 -0.002277531 -0.006167092 -0.0059563788 0.0017945851 0.0019492795 0.0033093914 -0.0012852895 0.0017542391 -0.0004713833 0.0040030745 -0.0072530587 0.008577662 0.0029602654 0.005239719 0.0046968507 0.0057345894 -0.0018976539 0.0002064268 0.00084520044 -0.0042505926 0.0040431228 -0.0070978994 0.0060165497 -0.004359981 -0.0021020356 -0.0029882088 -0.004796077 -0.0031137185 -0.004694995 -0.0014776712 -0.0044757864 9.402506e-05 -0.005219639 -0.0020485483 0.007614343 0.003906831 0.002984619 0.0025716906 -0.0022243904 0.0044867545 -0.0045927446 -0.00047505856 -0.006567104 0.0023119468 -0.00077235524 0.003965488 0.0033598393 -0.0020903812 0.0038759764 -0.0042242594 0.0042708605 0.0022832993 -0.0005580358 -0.0037089023 0.0004934661 -0.0047383546 0.0045388215 -7.246315e-05 0.005385117 0.00015389393 -0.0005972346 -0.001973773 0.002074823 -0.0055831005 0.0032366167 -0.0019538866 -0.0039130733 -0.0036592986 -0.0024292227 -0.0016362718 -0.0030479797 -0.0042804517 4.003447e-05 -0.00037180976 -0.0003185607 0.0029276977 -0.0005008115 0.001288654 0.0033506402 0.008458026 -0.0031888213 0.0028948644 0.006275625 -0.00472398 0.004632281 -0.005736048 0.005294619 0.0017740369 0.001321011 -0.0012748166 -0.0014313891 -0.0013544024 0.0021163845 -0.00033841905 0.0044507487 0.007129037 0.005751765 -0.005136825 0.00509137 -0.0034255844 0.003976724 0.00095172145 -0.00030110186 0.00048244157 -0.0033264044 -0.0042518126 -0.005450504 0.00057135825 0.0027791425 0.001022216 -0.00028441974 0.0034501848 0.004947349 -0.005347323 0.000538489 -0.006083398 0.0021052712 0.004160829 0.0049162754 0.0023226282 0.005251577 0.0012784927 0.0002540822 0.0065435 -0.0024455043 0.0044230497 0.0021177179 0.0001965825 0.0043674526 0.0015704917 0.0068669533 -0.00041375266 0.00391906 0.0026586025 0.0049543874 0.0018921309 0.003703649 -0.0017746446 0.002879601 0.004706361 -0.0013952089 0.0001369855 0.0028017266 -0.0075428146
spouse 0.0064220913 -0.004752756 -0.004501777 0.0011436046 0.0027348355 -0.0037180167 0.003053035 0.0061302804 -0.00437475 -0.0037604868 -0.002606024 -0.0016697986 0.0014111693 0.005209466 0.0029172227 0.0005012101 0.0016203698 0.0036358028 0.004197985 0.0029032445 0.003736985 -0.0043791533 -0.0019409098 -0.003029913 0.00431124 -0.002506496 -0.0053609773 0.0049098385 0.0034770265 -0.0027237786 0.0049582464 -0.0011073978 -0.00081351405 -0.0006713041 0.0018473292 -0.0011404259 0.0021518704 0.0030079137 0.002806107 -0.0041236887 -0.001514791 -0.0025286754 0.0031333661 0.0032304174 -0.0027101852 0.0021871391 -0.0044834143 0.0021397965 0.0049148453 -0.00039103674 -0.002553452 -0.0037273702 -0.0028409765 -9.775648e-05 0.0023813862 0.005874423 -0.002139632 -0.00054122356 0.006055081 -0.00018816216 -0.0006685652 0.006405875 0.005492137 0.004867636 -0.0035377732 0.0047496236 0.0029206662 0.0062620766 -0.0021264984 0.0019556305 0.0056475783 -0.001540664 0.0028780554 0.00074175687 0.0056093154 -0.001575674 -0.001335777 0.004000743 -0.00615829 -0.004044147 -0.0044270847 -0.00037368105 -0.00044869198 0.0046419012 0.005052653 -0.00096191914 0.0004602587 0.0013458653 -0.00041359925 -0.0051094596 0.0056071333 -0.0031338027 0.002037228 0.005657316 0.0022420282 0.0043767993 0.0012525069 -0.002062534 0.0009876346 -0.000106827625 0.0027565304 0.0034268198 0.00080747285 0.0030354904 -0.005161136 0.0038190552 0.0043545235 -0.0022067854 0.0007784682 -0.0028608576 0.00094447366 0.002012578 0.006432272 0.0018448997 0.0018104545 0.0023310706 0.005688574 -0.0038759692 -0.0018524417 -0.0031231663 -0.0012963973 0.0026928189 -0.004034019 -0.002072478 -0.0044556106 0.0036305054 -0.000981924 -0.0047906265 0.002818805 0.0043486706 -0.0013933501 -0.0025471842 0.0019538698 -0.0018342885 -0.0056960145 0.0031282238 -0.0034746814 -0.00306157 -0.001340819 -0.003800545 0.00080556516 0.004863771 0.0017859724 0.0042330134 -0.000675496 0.0006638964 -0.0019441382 -0.0039495854 0.0021098496 0.00068395585 -0.0056110807 -0.0037272286 -0.0054921038 -0.0037466134 0.0026136232 0.004237586 0.0026802241 9.750262e-05 0.002908921 5.19814e-05 -0.00057655474 -0.005154166 -0.000513751 -0.00086213555 8.063276e-06 0.003488094 -0.0032329883 -0.0031184047 -0.004386558 -0.0010721586 -0.0018671422 0.0010295234 0.0018557485 -0.0027238065 -0.0029943697 0.0008575339 0.003092572 0.003434056 -0.0013080792 -0.003982048
are -0.0015002282 0.000753959 -1.4030624e-05 0.0004776146 0.0027542063 -0.0025776525 0.002557317 -0.0013845882 -0.0015577713 -0.0049133333 4.8573307e-05 0.0009855591 -0.004159437 0.004601972 -0.0059769093 -0.0051871147 -0.0043537463 0.0025211126 0.0016226833 0.004535053 0.0021026728 0.00033778828 -0.0011350923 0.0057297293 0.0027255313 0.0002328374 -0.0013172665 0.0015264212 0.0017592034 -0.0017932138 0.0014881619 -0.0013469688 0.004559634 0.0014214515 0.0042093694 -0.0018612943 -0.0019940909 0.0019175139 -0.0047907443 0.0010249652 -0.00091648713 0.0025032512 -0.0064637186 0.0040916335 -0.0009705647 -0.0016547199 0.00059273734 0.0020588597 -0.0045686644 -0.0007671412 0.00023017176 -0.004269508 -0.0013530136 0.0022233152 -0.0013077944 0.0021129108 0.0010319309 0.0029772671 0.0018848352 -0.00034548712 -0.00026617467 0.0003386999 -0.0042819344 0.0053631235 -0.0013755956 -0.0065381867 -0.0041748746 -0.00015058175 0.00032941528 0.0029709719 0.0061761714 -0.002796782 -0.0010017741 -0.0026724217 -0.0021248038 0.0042071757 0.0026540481 -0.0009329924 -0.0062581403 -0.0029346237 -0.0016725633 0.004262372 0.0044159205 -0.0032792361 -0.0056414814 0.0032501894 -0.0018520083 -0.0016193022 0.0044968575 -0.004114955 0.0049944883 -0.0011199431 -0.0042557637 0.00083413156 0.0043712957 0.009369906 -6.636637e-05 0.0018696961 -0.004229824 -0.0008789038 -0.0036557063 0.0012666596 -0.0014473667 -0.0022216483 -0.0042484202 0.0056352443 0.000822454 -0.0012960203 -0.002594819 0.0042873104 -0.0032462142 0.0023942527 0.0031577048 0.0069315853 0.004185545 0.0011694421 0.0029401234 -0.0017381725 -0.0027543628 -0.003444996 0.0005741547 0.0031529632 0.0064361864 0.0041511296 -0.004019985 0.004700274 -0.0026501745 -9.7134034e-05 0.0010789327 0.0027334667 0.0030245841 0.0037072767 0.0059965053 -0.0018465901 -0.003525819 -0.005779443 0.004564649 -0.003288742 -0.001490095 0.0011799452 -0.0014644613 -0.0041315155 -0.002172458 0.00033245093 0.00072829134 0.003883945 -0.0036682545 0.0029965572 0.004433101 0.00032689516 0.0024382144 -0.004207068 0.0032572674 -0.0052421894 0.002529123 -0.0060129547 -0.0010084052 -0.006834655 -0.0033969244 -0.0019336164 -0.0019260494 0.00020002015 0.001029384 0.00012157312 -0.0048433207 -0.00410791 0.0014687951 -0.003569946 -0.006433594 0.0010747882 0.0034806004 0.0031344853 -0.0053876457 0.0018525494 -0.0041046273 -0.0047235014 -1.491579e-06 0.0005121136 -0.0033315567 -0.0060401065
women 0.0005679975 0.0051784697 -0.005567664 0.0036719146 -0.001944685 -0.0005911832 0.008256587 0.004481156 -0.0030699978 0.0016404788 0.0023907963 0.003840481 0.00075703784 -0.0028652982 -0.00021843058 -0.002919337 0.0013027593 0.00085204275 0.0013597135 0.0044863666 -0.0032938034 -0.0032915985 0.00402125 0.0012242235 -0.0022660787 -0.0020298674 0.00058484176 -0.0004259822 -0.004940612 0.0011348336 0.004925681 -0.005156517 0.00181229 -0.0023038578 -0.00032626724 0.0004431413 -0.002227608 0.0045575895 -0.005099301 0.0033508325 -0.0005934628 0.0033801259 -0.0008644741 0.004741403 3.51164e-05 -0.0012772888 -0.002673519 0.0048860307 -0.0022545012 -0.0024653648 -0.0026591169 -0.0030624485 0.0016662709 0.003148735 0.0052117035 0.0043959334 -0.003910336 -0.0012768375 0.0059859985 -0.0009404037 -0.0003489731 0.0049516773 -0.004390247 0.0061019734 0.0034247239 0.0031754954 -0.005438967 0.0058800704 0.0015884707 -0.0006468892 -0.00030120887 0.004032477 -0.005342441 -0.0041056303 0.0027275272 0.0049446304 0.0053066276 -0.0014671345 -0.0069823647 0.0053281845 0.0018588386 -0.0021553538 -0.003504473 -0.001212073 -0.0026826374 -0.0027592634 -0.00047176352 0.0003255817 -0.00016864843 -0.0043288376 0.0076189307 -0.0038029014 -0.004625527 0.005468922 0.0025064473 0.009715061 -0.0040031914 -0.004748787 -0.0013046226 -0.0011689746 -0.0060379123 -0.00015704469 0.0012414312 0.0033181764 0.0033542952 0.0022115672 -0.003473674 -0.0010241978 -0.002594166 0.0031788596 -0.0028980854 0.0019234098 0.0024433197 -0.00054912537 -0.0035936066 0.0063880123 -0.0028914637 -0.0013824076 0.0044225836 0.002041381 -0.0042287502 0.0012871902 0.006600208 -0.0046102447 -0.0015240523 0.0041398914 0.0036162615 0.0014767369 0.0053389566 -0.0005073049 0.001489351 0.00034726356 -0.003737103 -0.0006232315 0.0011012468 -0.0074954443 0.000624344 -0.0002939392 0.00016432964 0.0035314034 -0.001772908 -0.0041620117 0.003123357 -0.0041939695 -0.005653088 -0.00026053214 -0.0055766627 0.001886992 0.001498072 -0.0023728749 -0.004193382 -0.0019711144 -0.0008394304 0.0008325706 0.005305476 0.0021194017 0.0051130448 -0.0071629076 0.0022230782 7.053645e-05 0.0050109117 0.0008274068 0.0013448148 -0.004057038 -0.0056415056 0.004042575 -0.00044499946 -4.2214328e-05 0.0022204483 0.0015999284 0.005155626 -0.0007190964 -0.005266619 -0.0038036287 -0.0016204383 -0.004468969 0.0040507643 0.0027443615 -0.004269739 0.0016838523
her 0.007882631 0.0050291545 0.001815074 -0.0062820544 -0.0021198695 -0.006755906 0.0019275204 0.0026859755 -0.0017862082 0.00017676636 0.002342392 0.0015487951 0.0040950165 0.0036249475 -0.0046314527 0.0046086814 0.0039848117 0.0030366424 0.00034732826 -0.0026246305 -0.00065625773 -0.00054196815 -0.00022051476 0.006251283 0.0026775945 -0.0011490043 0.0006084645 -0.0032423285 0.00079237926 0.0022652866 -0.0015145265 -0.00018766866 -0.00075395644 -0.0046419 0.009029732 -9.409396e-05 0.0046747266 0.0002487536 -0.0035488075 0.0036060424 -0.0030478172 0.00014750069 -0.0021350125 0.001293237 -0.0013278153 0.0025179114 -0.0070445794 0.010629503 -0.005433707 0.006515292 0.0028889833 -0.0027742637 -0.005545952 -0.0032147344 -0.0020477765 0.0050544487 0.0048161065 -0.0025545997 0.0019682294 0.002963824 -0.0055199824 0.0017348133 0.0024237863 -0.0021818795 -0.0058045657 -0.0072474834 0.0041130595 0.006622379 -0.0056568435 -0.004293447 0.0051367464 0.0029500977 -0.0028715727 -0.0008359226 -0.0011330856 0.0032693865 0.0016695173 0.0060071847 -0.008050182 -0.0032203493 -0.0073015527 -6.057632e-05 -0.0025733076 0.0050062374 -0.004334136 -0.004495151 0.0018527546 -0.0040927683 0.0026699556 -0.0056265523 0.0089762565 0.0028545437 0.0002361263 0.004809761 0.0038879625 0.0033373253 0.0033353977 -0.006710074 0.0021516336 0.00063644984 -0.0028306923 -0.0009762839 0.0043621524 -0.0034597754 0.003998221 -0.0029372445 0.0032239724 -0.00022927705 0.00395709 -0.0018888141 0.0039847437 0.0058075474 0.005928381 0.0044064373 0.0033985125 0.008741718 0.00718007 0.0031130845 0.007852533 0.001271906 0.0045247674 -0.000664359 0.0009964895 -0.00023590637 0.00065922877 0.0023936431 -0.003934467 -0.00468488 8.094018e-06 0.0034404248 -0.0014063934 -0.002133053 0.0038391042 -0.0030583353 0.0008230881 -0.0016182908 0.0035334253 0.0025065823 0.0011391554 -0.0013862385 0.0045991037 0.00036788135 -0.004242651 0.0034510687 0.0021621177 0.0027088006 -0.002979711 0.0041359174 0.004195442 0.0027207076 -0.00048255167 -0.007331782 -1.6465063e-05 -0.0012613502 0.0032263524 -0.006534071 0.0061517144 -0.0070606642 -0.001067354 -0.003460673 0.005624619 0.0034085612 -0.0003003881 -0.00026151206 -0.00048084068 -0.0012578871 -0.0018007437 0.0009359037 -0.00077882403 0.004741479 -0.0043490594 0.0044657043 0.0003305431 2.4252997e-05 -0.0062379427 0.002946411 0.0037046429 0.005277084 -0.0025912516 -0.008684489
death -0.00074335525 0.001250852 -0.0064698765 -0.005263471 -0.003248508 -0.00096728787 -0.0013794332 0.00035485253 -0.00091361994 0.003180786 0.0015058197 -8.028987e-05 -0.0033751735 -0.00400198 -0.0018544459 0.0045683715 0.0037510612 -0.0032146345 -0.0014910852 -0.006223843 0.0004207871 -0.0025526755 0.0035891004 -0.00063645013 -0.0006156683 -0.008178511 -0.0017218671 -0.0023673149 -0.0035403136 -0.0043642377 -0.0018727215 -0.0033368918 -0.0019840826 -0.0016270722 0.005002838 -0.0007749724 -0.0032922148 -0.0026316124 -0.007152691 0.0013271825 0.0025505577 -0.00074259646 -0.00089353236 0.0014094284 0.0044351104 0.0050457804 0.0027792093 -0.0007413269 -0.0047588362 -0.0013322226 -0.003319232 -0.0034026436 -0.006832557 -0.00035278648 0.0016375477 -0.0005521745 -0.0055573853 -0.0010874128 0.0019849981 0.00027038684 0.0013911811 0.006491153 0.00023005722 0.0034365996 -0.003323751 -0.0008369549 0.001964712 0.008556206 -0.004326036 0.0020060665 0.0010816343 0.00017383721 0.0025296328 -0.0037453426 0.00033971987 -0.004644498 -0.004760782 0.005991259 -0.005677843 0.0023814305 -0.0058803675 -0.0010732632 -0.0026043858 0.006167375 0.0028016493 0.0020664842 0.003659398 0.0003977692 -0.0033558833 0.0039965245 0.00065559446 0.0027427045 0.0021857135 0.00093236385 -0.0030588047 0.0055764094 0.0016512814 -0.005300486 -0.0013649757 -0.0051305234 0.003826571 -0.00048432095 0.0048069996 -0.003627236 -0.0058807624 -0.0043375907 -0.00355638 0.0026218076 -0.0005827293 0.004831242 0.0023656958 0.0030919511 0.0058316225 0.008004465 -0.00078043505 0.008144407 -0.0027298024 0.00029477992 0.003160893 -0.0025883976 0.0036353203 -0.0021077981 2.9075705e-05 -0.0013377195 0.00045831664 -0.0002856141 0.004458792 -0.0030436418 0.0055056913 -0.0012915115 0.00194514 0.0035769544 0.0006621418 -0.0023309616 -0.0019014869 -0.00074946496 0.001574768 -0.0023937044 -0.004600728 -0.007444343 -0.00010040746 -0.00425975 -0.001870359 -0.0027422213 -0.0057177083 0.0012820198 0.0022821007 0.00074834056 -0.003462342 0.000524324 -0.0011026355 -0.00540745 -0.0007607026 -0.0017542131 -0.0008659222 -0.0068727974 0.004951645 -0.0005292537 -0.0053071533 0.0059345625 0.0006852148 0.0032158585 -0.0016464225 0.00558202 -0.00048346166 -0.0046693366 -0.0010259842 0.00313706 -0.0014358297 0.0028400412 0.0043126773 -0.003684173 -0.000858236 -0.0043474706 -0.0046654884 -0.004161893 0.0020024918 0.0027676334 0.0038104802 -0.002578226
widows 0.0038524359 0.0050312183 -0.0030916717 0.0009529985 0.0026455994 -0.0014654237 0.007597089 -0.001158805 0.0023695922 0.0019409087 0.0035663284 -0.0050438973 0.00076033536 0.0015203772 -0.0047471174 -0.0035044525 0.004208973 -0.00621198 -0.0050322893 0.0037146192 -0.002643284 0.004440704 0.0010921846 0.003131955 0.0004008286 -0.006284758 -0.0060994076 0.0012154053 -0.005677927 -0.003749373 0.003961101 -0.005866836 -0.0010194561 -0.004137589 0.0005851872 -0.0032324865 0.00067079195 0.004559612 0.0020318977 -0.0011376746 -0.0054378677 -5.6081895e-05 -0.00798043 -0.0040625082 -0.0034505806 0.003919204 -0.0067667617 0.0058277585 0.0005633458 0.0056190183 -0.0003916725 -0.0044359225 0.00017401914 -0.0021919564 0.0036207351 0.0023768335 0.0043321294 -0.0031234815 0.0007005243 0.0011653836 -0.0066750743 -0.0022869648 0.0027586783 0.0001652054 -0.0029017988 -0.002937757 -0.0061756503 0.0035514182 -0.003591329 -0.0012897592 0.005881271 0.003988346 0.001214619 -0.0059900936 -0.0017230201 -0.0044085523 -0.004230557 -0.000755794 -0.00336398 -0.0046874695 -0.0052001555 -0.001063155 0.00511041 0.0029745323 0.0040776883 -0.005737274 -0.0034801143 0.00018824759 0.006929934 -0.0007293088 0.0045397715 -0.0011563648 0.0007614607 -0.003631433 0.0030879427 0.0099333795 0.0010458463 0.00086900074 -0.006947512 -0.0030896694 0.003429479 0.0006356049 -0.0058591235 0.00233933 -0.0039266613 0.004258475 0.0019094639 -0.0028364423 0.00087383675 0.0029103342 -0.001199524 0.00015819089 0.009497939 0.0087756 -0.0048457785 0.00849508 0.0080249375 -0.0028385967 0.0050749164 -0.004610306 0.0046225516 -0.00061519665 0.0045343693 0.0039165784 0.0031537344 -0.002471514 1.7809085e-05 0.0010545104 0.0023039086 0.00026928302 0.0058531133 0.004255028 0.006577888 -0.008177097 -0.003348868 -0.002288961 0.0035354253 -0.0012396476 -0.0037096185 -0.0036809312 -0.0050483476 0.0040986286 0.00085923314 -0.0046672584 0.00076749217 0.0033488944 -0.0042032395 -0.0011619714 0.0010501912 0.003736098 -0.0063610924 -0.002395739 -0.0039132936 -0.0021134717 0.002682343 -0.004303972 -0.0007245506 -0.002561704 -0.007782887 0.0058834367 0.0027742863 -0.005676969 -0.0021102945 0.0032950765 -0.0050150533 -0.0052932305 -0.0031372597 -0.0052488823 0.0028798655 0.0062491056 0.0012578608 -0.00494424 0.0032586267 0.0027558517 -0.001266877 -0.004324143 -0.0010699747 0.0012615641 -0.003493602 -0.00288556
after 0.001867071 -0.0030424693 -0.005808713 0.0029251832 -0.0060174447 -0.0041990257 0.005520667 0.0012798567 -0.0026731857 -0.0034004685 -0.00033727163 0.0031788333 -0.0028805786 -0.0030605253 -0.0036253685 -0.0023445042 -0.0040001487 -0.0070226286 0.002928489 0.0038748526 -0.0017442413 -0.005199626 -0.000781753 -0.0017490155 0.0062271743 -0.0004212022 -0.004171075 -0.00085448934 -0.0073220353 -0.0002968541 -0.0024257342 -0.0026166027 0.0046337824 0.0037472493 0.0052104373 -0.0027672611 0.0044078142 -0.005771033 -0.0054097273 -0.0032101022 -0.0016639531 0.0009454734 -0.0038642692 0.00027721646 0.0047416864 0.0049419343 -0.0021602847 0.008056327 0.0005233557 0.0005674997 -0.0032749115 0.004228893 -0.006626547 -0.00017975246 0.004750877 -0.00078638305 0.00044641367 -0.0064635235 0.003731229 0.0026127042 -0.006935488 -0.00018261903 0.0048951195 0.0025336712 -0.00018425068 -0.0010083338 -0.006054132 0.007441309 -0.0027175043 -0.0025882362 0.0041960254 0.0014204123 -0.0045383964 0.0021681073 -0.0006975451 -0.003175729 0.0044400995 0.0044680308 0.003257327 0.0005429413 -0.0010432116 -0.00437247 0.003867356 0.006495406 -0.0007081575 -0.0017246885 -0.002656088 0.00016108448 -0.0029347187 0.002335091 0.0028472035 0.004120257 -0.0042170696 -0.0018689436 -0.002534904 -8.89381e-06 0.00015184877 0.0018853991 -0.0007633803 0.001595474 -0.0057982393 5.9071346e-05 -0.0047191065 0.001293775 -0.0019398261 0.005109261 -0.0027609537 0.0039130608 0.0021770548 0.00068627694 0.00040337298 0.00526567 0.0040300945 0.006928881 0.0024352134 0.0057828664 0.0043805903 -0.00518573 -0.0007717357 -0.0011957589 3.7155605e-06 0.00080420927 0.0014814853 0.003376912 -0.0021129206 0.0014023936 0.0044399425 0.001651971 0.0032132813 0.0015512471 -0.00031037134 -0.0035257852 0.0022545464 -0.006994235 -0.0017343995 -0.0075499318 0.0007429634 -0.004792503 0.004253914 -0.0038136572 0.0052825264 -0.0058829244 -0.0034032192 0.0007977089 -0.0023415473 0.001271105 -0.0028375618 0.00080101093 -0.0027998223 -0.006167442 0.002925143 -0.001339259 0.0035013082 -0.00514064 0.0024704635 -0.0063604214 0.004768542 0.0015805856 -0.0059344987 0.00569489 -0.0028370975 -0.005077569 0.00031861407 0.0026971933 -0.0048530526 -0.0057282834 0.006034173 -0.0005261067 -0.0006060017 0.0028431064 -0.0021572046 0.0008482921 0.0011333879 0.0055825133 -0.003836676 0.0016399475 0.003471561 -0.0030566556 -0.0043774126 0.0023835362
men 0.0050372384 -0.0014134531 0.0021456261 0.00018718961 -0.003929503 -0.0016065609 -0.0006110784 0.004905986 0.00024383524 -0.004931111 0.00027481554 -0.00088776206 0.0040623476 -0.0009121568 0.0035032453 0.0013853982 -0.001862009 0.0032154806 0.00048141534 -0.002640957 -0.0026103256 -0.0019612785 -0.0027945791 0.0020298173 -0.004124472 -0.0049411617 0.0013137733 0.0009310658 0.0016712005 -0.0031135387 -0.0002452334 0.00038973996 0.0046396386 0.00024085549 0.007848653 0.0031811874 -0.0035119099 -0.001087034 -0.005985143 -0.001962789 -0.001588839 -0.0047746734 0.0036789922 0.0006786182 -0.0009341149 -0.0018786553 -0.00630636 -0.0030870687 0.0046273074 6.90618e-05 0.0028363639 -0.0019956077 0.003929052 0.0027103024 0.0011345814 -0.001662939 0.00033150104 -0.0036016067 0.0048724907 0.0010517159 -0.0010381455 0.0032618707 0.0025291522 -0.0029977385 0.004705021 -0.00023450101 -0.003758314 0.0064996714 -0.0022162488 0.0047448236 0.0015667657 0.004813658 0.000443735 -0.003330684 -0.0014260584 0.0053998698 0.0013251457 -0.0026025136 -0.0013196336 -0.0010387381 -0.00025602712 -0.004244867 0.005256376 0.0016998496 0.004298202 0.0017817123 -0.0029175351 0.0025821913 0.0006550466 -0.0062729935 0.0064076977 0.0044630775 0.0047646817 -0.0014406926 -0.003954207 0.006305002 -0.005608366 0.0040623373 -5.922925e-05 0.0027569442 0.0028977352 0.00076960574 -0.0014928267 0.00019176773 0.0052052676 -0.0036397665 -0.0018870919 -0.0012343314 0.002467398 0.003589234 -0.00199483 0.0026793121 -0.00011135421 0.003956252 0.0050682425 0.004323407 -0.0012171982 -0.0025366845 0.006543664 0.0038661135 0.0031178645 -0.0021649133 -0.00051481987 -0.0041757333 -0.0022337525 0.002917385 -0.003084663 -0.0033463123 0.005260863 0.004517022 0.0051285983 0.0017755333 -0.0046017403 -0.006050168 0.00059525575 -0.007373994 -0.0033871408 0.0009257977 -0.0014757897 -0.0060704257 0.0033384804 -0.005825424 -0.0050844555 -0.0014515977 0.00036958331 -0.00030629235 -0.0034526573 0.0048572808 0.005266132 -0.004771782 0.0051267836 0.0028705634 -0.0042255707 -0.001939011 0.0027457108 0.0030624657 -0.0015215145 -0.005250115 0.0005730529 -0.0040330994 -0.0030762649 -0.0010071325 0.0025837843 -0.0022332962 0.0023032038 -0.000917849 0.0024361827 0.0023821932 -0.00013473358 0.0055355895 -0.00014875138 -0.004780558 0.005144257 -0.0026322328 0.0020571493 -0.0019869928 -0.0043094177 -0.0029698121 0.0031514335 -0.002502636
widow 0.0019089074 -0.0042056106 -0.0036363865 -0.0035830943 0.0038782703 -0.0054519293 0.0044015553 0.000518091 -0.0004352299 0.0046759876 -0.0016486541 -0.0036100924 0.00081767514 0.004148134 0.004376623 -0.0018373749 0.0017800754 0.0017720368 -0.0038947521 0.0034887518 -0.003214094 0.0010980786 0.002779432 0.0027105873 -0.0017650872 0.000109881075 0.003647913 0.0053656553 -0.0065015247 0.0021691401 0.0025814718 -0.0014931107 0.0061861193 -0.0028063613 0.0008836653 -0.0030494954 -0.0016842675 -0.00017420053 -0.002701843 -0.0021777183 0.0032711031 -0.0024612125 -0.004560571 0.0038665833 0.0051080915 0.0030867122 -0.0011838586 0.002502942 -0.00085455447 0.00493509 -0.003175239 0.00068911846 0.0012230661 -0.0006533774 0.00078921573 0.0024463786 0.0052552116 -0.00044480685 0.005956775 -0.0043093213 0.0014634789 -0.00090486417 -0.0020626204 0.0013036258 -0.0025373867 -0.0040491438 0.0014256997 0.0060532554 -0.0047428063 -0.0048383423 -7.646508e-06 0.004818622 -0.0063023744 0.0047209645 0.00027888475 0.0016055027 -0.00072115066 -0.0028149695 0.0005110472 0.003332603 -0.0047948863 -0.0005829697 0.0016747946 0.0031565165 0.0038002876 -0.0025021855 0.0036614854 -0.0027883013 -0.00038109103 0.004454609 0.0045004995 -0.005366796 -0.0012650324 -0.0042402293 -0.0003954399 0.005887258 -0.004959392 0.0024419602 0.002293413 -0.002376828 -0.0057067573 -0.0009852148 -0.00170261 0.0017973358 0.0046521644 0.00127159 -0.0018370593 0.0015948137 -0.0040251566 -0.00065276807 -0.00048483053 0.0058396156 -0.0014564616 -0.0024520406 0.0015658295 0.0032480322 -0.0029724392 -0.0038437417 0.000886271 -0.0030456097 -0.005146876 -0.0025261012 -0.0011066416 0.0031009153 0.00072479056 0.0017340294 0.0005453717 -0.0016876819 0.0023633987 -0.00028641865 0.0034745957 0.00028561632 -0.0045786723 -0.0009499834 0.0054917377 -0.0044983183 -0.0022602763 -0.001587152 0.0047960505 -0.0012866944 0.0050111157 -0.0052082264 0.004335866 -0.0056418628 0.0047003157 0.0012967574 0.0009103116 -0.002317698 0.005034118 0.0028652903 -0.0034136828 -0.0061631682 0.0037047174 -0.0035878057 -0.0047822613 0.00086645666 -0.0024975052 -0.0052888896 0.0037074445 -0.00015096484 -0.00063340634 -0.0025653346 -0.0026897897 -0.0018970307 -0.003325743 -0.003594816 -0.0037151107 0.004408191 0.0027671284 -0.0010282593 0.0013769844 -0.004364408 0.004121035 0.00465628 8.615209e-06 -0.003477713 -0.0018252785 0.0031339668 -0.001246027 2.4892506e-07
husband 0.0072787153 0.004009518 -0.004478093 0.0024010974 -0.0034947 -0.0048302817 0.007466283 -0.0029320302 -0.0017769509 -0.0011440852 -0.004148717 -0.0002303983 0.0039018798 -0.0032313631 -0.0053458987 0.0037786406 -0.0010927321 -0.006469257 -0.0019308811 -0.00083076936 0.0052431514 0.00014239668 0.004926964 -0.0048022643 0.004134844 0.0006834721 -0.00048486431 -0.00050357636 -0.0019858761 -0.0021807828 -0.0049984804 -0.005175713 0.0030205725 -0.0019809538 0.008866111 0.0009387044 0.0043258048 0.000552757 0.0024634427 -0.003566897 0.000711711 0.00017766163 -0.0012496321 -0.0012139061 -0.003965884 0.0067987135 -0.0038680038 0.0055085816 -0.0039862054 0.004357335 0.006271998 0.00027846012 0.0013163919 0.0010013396 0.005199028 0.0063106045 -0.0007176593 -0.004505475 -0.0039405287 0.0034632743 -0.0038016436 0.0032912244 -0.0004526852 0.005923835 0.004196881 -0.00085694547 0.0009802138 0.0065064696 -0.001083694 0.0039306423 0.003893473 2.3814691e-05 0.0009776797 -0.003329267 -0.0006003582 0.005357495 -0.0045442306 -0.000909796 -0.003942242 0.0029825831 0.0025590076 -0.0033918638 0.0047192504 0.0015946602 -0.00564602 -0.002260732 -0.0017131692 -0.0018930661 0.0010956753 -0.003941249 0.006570087 0.0037573855 -0.0014678928 0.003266679 0.0006136004 0.0053627333 -0.0055241226 -0.0004507629 0.000115392446 0.0031437739 0.0027949046 0.0028441567 0.0021193894 -0.004540025 -0.0011832422 -0.0027218473 0.0026090336 0.004206262 -0.0028477346 0.0005191829 0.0033828458 0.0018695955 0.0040625883 -0.0005783464 0.005793623 -0.0003061187 -0.0012303267 -0.0041876473 -0.00018365783 -0.004556297 -0.0054482566 8.621163e-05 -0.0008122586 -0.002475088 0.003949511 0.0034347915 0.0019344382 -0.00032335563 0.0065989243 -0.00091784727 0.0032424913 0.0065649357 -0.0045042126 -0.008038994 0.0054738163 -0.0015694972 0.0003135533 0.0021371983 -0.002269083 -0.005331128 -0.0048791138 0.0028944481 -0.0024234406 -0.004495918 -0.004165888 0.0042640744 -0.002300892 -0.0016659176 -0.00047993456 -0.0018803582 -0.002656192 -0.0031806638 0.0022126785 -0.000384438 -0.0010090603 0.00023067092 0.0035410533 -0.0076222313 -0.007869134 0.0051162275 -0.0048026815 -0.00046002335 -0.005679186 0.006034089 -0.0027462088 -0.0049526524 0.00076969544 -0.0024948718 0.0024676975 0.007065912 -0.00046824382 0.001295901 0.0027648846 0.00023280203 -0.0041590035 0.00040555472 0.0009541186 0.005817235 -0.0013941101 -0.009174192
as 0.0052366946 0.006959983 -0.0055284584 -0.0009298007 -0.0046085194 0.0024062435 0.008492493 0.0018892942 0.0017654736 0.0031728968 0.0028834853 -0.0040880856 0.0024602334 -0.0012418084 -0.0023131277 0.003199778 -0.00015984284 0.0035394232 -0.0021548928 -0.00058435195 -0.00019916227 -0.004852547 -0.0049332436 0.0033906759 -0.00198592 -0.0011276936 0.00053578406 -0.0027681896 -0.004131264 -0.0050471877 -0.005217133 -0.0011910239 0.007549718 -0.0046683354 0.0011181108 0.005844134 0.006002571 0.00496319 -0.0075172144 0.0042666607 -0.0042861286 0.004751046 0.0012227397 -0.0027528626 0.0034656788 -0.0026774849 0.00042270645 0.0067953966 0.0029768695 0.005423733 -0.0009900369 0.002908201 -0.005449116 -0.0025765304 0.0022854009 -0.004453674 -0.00061851915 -0.002527773 0.0058134557 -0.0058157505 -0.0036362375 -0.00024281374 -0.0023428213 0.00079132203 0.002231 -0.0043708067 -0.0016770569 0.007640408 -0.0029088599 -0.0017142688 0.0075568543 0.0017273067 -0.0019098199 0.0040378654 0.0053500375 0.0024856972 0.0025011976 -0.00043428713 0.0024780768 0.002654182 -0.0047039287 -0.0032918928 0.0011372673 -0.002669522 0.0014214766 -0.0059526176 -0.0016978332 0.0023615062 0.0032481055 0.0007260911 -0.0022655462 0.0005109818 0.0024394814 0.003184015 0.0053907125 0.0062763346 0.0018118839 0.0038891588 -0.0025097798 -0.0010156517 0.00030153897 -0.0032289561 0.0026091253 -0.003111051 -0.0022822225 -0.0007633707 0.0034445086 0.0012165458 -0.0008704854 -0.0017545597 -0.0005344777 9.8527225e-06 0.0007286788 0.0005020667 0.0005424182 0.0059661237 0.0029206283 0.0026197296 0.0034030932 -0.0042566406 -0.0043459535 0.0028284718 0.0051687923 -0.0043998547 0.0031486577 0.006960306 -0.0027882028 -0.0011163042 -0.0038604257 0.000683262 -0.0014297483 0.0025305855 0.0060920487 -0.007485301 -0.005332345 -0.0019652862 -0.0034136774 -0.005607327 -0.0049195774 -0.0015822448 -0.00090571045 -0.00063368183 -0.0018295526 0.00479511 0.0041319374 -0.0027804635 0.0037612144 -0.0033379102 -0.00027497034 0.00037689606 -0.0007369904 -0.0040638396 0.0002175763 -0.0005018193 -0.0043051983 -0.00374268 -0.0037682196 -0.0003929693 -0.0037490283 -0.0026790109 0.003337101 -0.00039518208 0.0007742881 0.0043283277 -0.0027134467 0.0032599373 -0.0030397484 -0.0037373763 -0.0056938026 0.0024434472 -0.00444758 0.004821218 0.0033016072 -0.0038235092 0.0025279457 0.0041760406 -0.004329436 0.003516337 -0.003686249 0.0018233065
has 0.0038395491 0.0007441547 -0.005757545 -0.00075001654 -0.0011241477 -0.00023970079 0.0066391174 -0.00040735965 -0.005380089 -0.0052408297 -0.0002734341 0.00088373176 0.0005149167 -0.0013889105 0.0040348964 7.381798e-05 0.003914991 0.0010842433 -0.0049605905 -0.0015825504 -0.0037461598 -0.0037854712 -0.0014665644 0.0040948377 0.00041191914 0.003488592 -0.0017906278 -0.0022450502 0.00087736954 0.00017373227 -0.00039093476 -0.0019787746 -0.0022895902 0.0017242782 -0.002264319 -0.0042666127 -0.0045503182 0.004411088 0.0011878912 0.004677301 0.0050339107 -0.0034690173 0.00088178314 0.0009533953 0.0032902958 -0.00086912396 0.0039444617 -0.000904418 0.0035928888 0.005089834 0.00018424263 0.0032925012 0.0025165973 0.0014071394 0.004521221 0.0019365326 -0.0009977309 0.0024162366 0.0033750746 -0.0028626104 -0.0003658934 0.001012392 0.0031586487 -0.0023248894 -0.0026294866 -0.0014369227 0.0017376787 -0.0021046165 0.0029485095 -0.0015339452 0.005228217 0.0022197987 0.0027324879 -0.0032307487 -0.0013447161 0.0020662516 -0.0012508548 0.003908641 -0.0044575646 0.0013609831 -0.0014108869 -0.00024286732 0.0021658842 -0.00032796894 -0.002686296 -0.005245572 0.0008096085 0.0033387672 -0.0022857746 0.0044143256 0.0038729734 -0.0036225999 -0.0011385245 0.0029219433 -0.0032674354 0.004302968 0.0022133235 0.0027625933 0.0019088236 0.0016688243 -0.0019292431 -0.0029227051 0.004232004 -0.004252444 -0.00115437 -0.001498299 0.0031106118 -0.003595902 0.0016361226 0.0010931023 -0.0019203743 -0.0041965637 -0.0025116676 0.003609622 -0.005162689 0.005188654 -0.00041824396 -0.0057827886 -0.0011218082 0.002901743 -0.0010486058 0.003239297 -0.004465691 -0.005602259 -0.002491519 0.0012852493 -0.0035508103 -0.004926541 -0.0043908316 -0.0008248643 0.0043682125 -0.003756169 -0.0024514035 -0.00065401365 0.0018111672 -0.006278185 0.0050551575 -0.0048271734 0.002753019 0.00444403 0.002979861 0.0029396028 0.0039983215 0.0018227225 -0.004341087 0.0036455065 -0.0051584607 -0.002244361 0.003589298 -0.0049799983 -0.0037140346 -0.0030278843 0.001806604 0.0021768736 0.0016473411 0.0021857703 -0.0011366165 0.001027392 -0.0058008065 -5.062343e-05 -0.004138088 -0.00031102283 0.0022934696 0.0034167266 -0.0028645287 0.0002820975 0.0050575654 -0.0040894686 -0.0030280373 0.0007754426 -0.002757812 0.0047136205 0.004238778 0.0052562407 0.004591522 -0.0044431896 -0.00028010845 -0.003724811 -0.0023091484 -0.0068335626
at 0.0035053804 0.0011624534 -0.0051693167 0.0038669861 -0.0010293133 -0.00088266796 0.0010187645 -0.00018067821 -0.0024935578 0.0037861879 0.0016723679 -0.002568334 0.0032282642 0.00023445633 -0.0024714605 0.004469337 -0.001778341 0.0024318323 -0.003823425 -0.0046372907 -0.0016350223 -0.0023758083 6.914196e-05 -0.0006008248 0.0042648935 0.00081535673 -0.0017994177 0.0030681682 -0.0029782245 -0.0009234455 -0.0011540495 -0.0024622194 -0.00077773584 -0.0030499336 0.002885582 0.0021236097 -0.0044574756 0.0028819381 -0.0026028806 -0.0004458769 -0.0031293184 -0.0015951912 -0.0045634573 -0.006164943 -0.0007285473 -0.0028807803 -0.004531322 -0.00055166543 0.0051332344 0.0008949475 -0.0038022448 0.0037653379 -0.0062013175 -0.00020629805 0.0021093907 -0.003134336 -0.005279472 -0.006429929 0.0052376976 0.003356459 0.0003916431 0.0030332557 0.0026302221 -0.0013512016 0.0051218024 0.0025528956 0.0016568113 0.007184415 -0.006437374 0.00066454004 0.007889398 0.0005491744 -0.0052094115 -0.002249506 -0.00093169353 -0.0009810647 -0.0006053198 0.0046952325 -0.0020382272 0.0021337788 -0.0034611807 0.0046668453 -0.0023782314 -0.00372179 -0.002778539 -0.004827354 -0.0034112453 0.00061142386 0.0025358065 0.00019178653 0.005323842 -0.001898459 0.00074172794 0.0013329467 0.0052660108 0.009006374 -0.00251272 -0.00024785937 -0.004909324 -0.0033164674 -0.004543185 0.0006833446 -0.0031507164 -0.0025866954 0.00055151805 0.0017887679 -0.0059391353 0.0011117472 0.0024015445 0.0021225552 -0.0011500096 0.00601514 0.008188201 0.0024312644 0.00094656675 -0.002205474 -0.0010312503 -0.00080694136 0.0047556693 -0.0018987432 -0.005003039 0.00287089 -0.0032221987 0.004019411 0.0036021217 -0.002642989 0.0023056075 0.004693909 -0.002498919 -0.004577974 0.0055437926 0.0023329125 0.0061395 -0.0077544884 -0.00079871155 0.0014857571 0.00020534378 -0.0013037644 -0.0037647749 -0.0045362054 -0.003746238 0.004016292 -0.001684687 -0.0049095373 0.0038043254 -0.00095622474 -0.0014272226 0.0010969666 0.0018927425 -0.003471817 -0.0007282288 -0.003304885 0.0047288756 0.002912877 0.0012185245 -0.004296862 0.002252009 -0.0013950524 -0.0063198307 -0.0019375487 -0.0014891068 0.0008277874 -0.005214267 -0.0017406623 0.004186641 -0.002916693 0.0056313826 -0.0011823759 -0.004256205 -0.00116541 -0.0003730724 0.0023620988 -0.0032892881 -0.0029359178 -0.004547891 0.0041833953 -0.0013491039 0.0030247013 -0.0004947478 -0.0069099404
more 0.0017345784 0.0019170438 0.00025366707 -0.0054365033 -0.0057448414 -0.0052599143 0.00547305 0.00037200993 -0.00071082835 0.0016488557 0.0030817857 0.0016447564 -0.00080089597 -6.0662842e-05 -0.00444928 -0.0033675267 0.0053491783 -0.004609156 -0.007129507 0.0013037715 0.0059499573 -0.00018532254 0.0017617103 -0.0013155484 -0.0003353841 -0.007984117 -0.005483265 -0.003476409 -0.0061272574 0.0026392075 0.004736223 -0.002409988 0.0025213826 0.0033568179 0.0048286105 -0.0012186115 0.0026167391 0.00050974236 -0.004347495 -0.0011390344 0.0045970627 0.0052839667 -0.007519777 -0.0043108175 0.0004492275 0.0024973988 -0.007103853 0.009911479 -0.003455026 0.005117718 0.005886489 0.0014726773 -0.00014108582 -0.0003449323 -0.0045837504 0.0015751071 -0.0011614081 -0.009313314 0.005616246 -0.0064032245 0.00025030627 -0.00020929918 -0.004483734 -0.0037434094 0.0029891648 -0.0046528927 0.0020824084 0.002225117 0.002730237 0.004172088 0.009737194 0.0059274905 -0.0063702185 -0.0070505203 -0.0021004784 0.00011581204 0.003375007 0.003314283 -0.0035808503 0.002773362 -0.0039650323 -0.0036887012 0.004343705 -0.0035423683 0.00013479128 -0.0037219883 0.0032395544 -0.0014120612 0.0033876474 -0.0048904284 0.008727993 -0.0047007734 0.0011468534 0.0032237263 0.006279508 0.0032907142 -0.004387306 -0.004745538 0.0011056068 -0.0032396803 0.0014898671 0.0005154837 0.0033858872 -0.0037443612 -0.0007316402 0.0005054499 -0.00585462 0.0047774077 -0.0015138788 0.0035229924 0.00080179115 0.0036380452 0.005235679 0.0083783055 -0.0041434364 0.008766318 0.0070563164 -0.00084542454 0.00596699 -0.0008303082 0.0019674744 -0.002129762 0.0030497347 -0.0006999996 0.003448346 0.0062720072 -0.0033383397 0.0006961611 -0.0036778843 -0.0020018562 -0.0043023187 0.003513947 6.18601e-05 -0.0035559926 0.0032040928 -0.00776224 0.0021055457 -0.001911599 -0.0018880925 -0.0056930888 -0.004908576 0.003469277 -0.0053574345 0.002408727 -0.002923838 0.0001577656 0.00045537652 -0.0027547905 -0.0026377745 -0.0054622632 -0.006168873 -0.0048728166 -0.0017637007 -0.0011643942 0.0005403655 -0.0058473684 -0.0014382389 -0.0042215763 -0.007419161 -0.0018594753 -0.0010925952 -0.0051774094 -0.0054279636 -0.0027286974 0.0013663137 -0.0055132876 -0.0005421585 0.0015509268 0.0023432865 -0.0012419254 0.0035200967 -0.004608437 0.00030781774 0.003918756 -0.0027609612 0.005733057 -0.00019935588 0.0036303503 0.004636954 -0.008780154
by -0.0007394151 -0.002276177 -0.002596343 -0.004833954 -0.0020308301 -0.005995362 0.0043502566 0.002392642 0.0022451626 -0.0057994314 -0.0011113359 0.0035652535 0.006092749 -0.0012997229 -0.001064807 -0.003048495 0.0011059954 -0.0070669753 -0.006463771 -2.0109772e-05 0.0011702077 0.0029130434 -0.0046518 0.0018515715 0.0030111244 -0.0060932236 -0.0011597984 0.004856222 -0.0066872416 -0.0020281896 0.0015143522 -0.0006421222 0.0042835227 0.0033299858 0.008061667 0.0034933367 0.005627022 -0.005001718 0.0018976699 0.0040994855 -0.00428336 -0.0011913513 0.00083063706 0.0020176533 -0.0059830532 0.0027586808 -0.0028706335 0.0056067626 0.0034260147 -0.0011316584 0.0060119997 -0.004169297 0.0008048084 0.0064330255 -0.0011656553 -0.0041564843 0.003155094 -0.008879736 -0.0029353446 -0.0028213223 -0.0067297686 0.007134481 0.00504598 0.0019024746 0.0038728535 0.0036077911 0.0022420099 0.0058247605 0.00010579069 0.0037945167 0.0070420317 0.0047740927 -0.0064696237 0.0036005566 0.005689991 0.0058444785 -0.0043865684 -0.0006610439 -0.0026642757 0.0021719963 -0.0068852473 0.00022721002 0.005106018 0.0075005475 -0.0021289885 -2.3550576e-05 0.002567026 -0.00064268336 0.003129385 -0.006587321 0.0038479313 0.0008098495 0.0018123843 -0.0039332835 -0.0015456018 0.008293962 -0.001064644 -0.004143245 0.0008153115 0.0011550876 -0.0053660157 0.006417436 -0.004897557 -0.0020759185 0.0048748436 0.0011333731 -0.0044936338 0.00061040174 -0.0026336173 -0.0038951936 -0.0035557586 0.0035176473 -0.000662266 0.0059611103 -0.002496976 0.007328941 0.00022350953 -0.0044515235 0.0074740266 -0.007884358 0.00045500373 -0.0017457011 -0.0022430148 -0.005624285 0.0045647095 -0.00080305396 0.0035618704 -0.0047716843 0.0022724492 -0.0024686449 -0.002802204 0.00014379222 -0.003616033 -0.00550994 -0.0016551483 -0.004753444 -0.0013761516 -0.0058547035 0.0032491847 -0.002442244 0.002947293 0.0003635736 0.003472215 -0.002213338 -0.0057950793 0.0017344591 -0.006243512 0.005407179 0.005265566 -0.00078311353 0.0034700634 0.0022307876 0.002260087 0.0016108945 0.0061659045 -0.0007720187 -0.0038020473 -0.007609458 -0.005197748 0.0013770424 0.005309484 -0.006013221 -0.0025018817 0.0066409097 -0.001220995 -0.006365336 0.002742515 -0.0054561254 -0.0050689285 -0.0011187438 -0.00026906547 0.0038273842 0.0024027373 0.0047948123 0.003664107 0.0031214145 -0.0034700593 0.0050747567 -0.0045901123 -0.006967356
be 0.006587365 0.0058767754 -0.0045372406 -0.0050725965 0.0028566138 -0.003505002 0.0011298371 0.0060355645 0.0019504307 0.0016175571 -0.0001518486 0.005231139 0.005541354 0.0036699052 0.0037481743 -0.0029367541 0.0011033892 -0.0030487794 0.0016944966 0.0048095947 0.0038055023 0.0020312115 0.004060103 0.0038927062 0.0016989748 -0.00725117 -0.0021506606 0.0062995483 -0.005329375 -0.0011832084 0.0023206207 -0.005076063 0.0066997237 2.5575384e-05 0.004776719 0.0059282607 0.0017872851 8.7769295e-05 -0.007179149 0.006913659 -0.006252347 0.0057126083 0.00040811807 -0.0010586202 -0.0047397385 0.006962797 -0.0028857102 0.007141204 -0.0021972656 -0.00035915757 0.0007689767 -0.0036724713 -0.005888386 -0.004306714 0.0037716336 0.0011670241 -0.0009797715 -0.00034477428 0.00028695853 -0.0061095147 -0.0007198255 -0.0013116883 0.0007513071 0.0064961542 -0.0009346693 0.0019583635 0.0018115337 0.00078048545 -0.005401323 0.0051663234 0.004819922 0.00092747854 -0.0014483834 -0.0040856726 0.0028164864 -0.0012448801 0.0030191333 -0.0015816741 -0.0025399893 0.002104408 -0.0057126987 -0.001246959 -0.003454476 0.0025709656 0.00059226627 0.00043288732 -0.00034342622 0.00064678205 0.0029336063 -0.0016741486 0.0062601287 -0.003093259 -0.0034861676 -0.0016647242 -0.0043214285 0.0010083757 -0.00039664045 0.0010579563 -0.00528984 -0.0060292794 -0.0043331506 0.00336133 -0.005621745 0.0026004931 0.003064426 0.0039061126 -0.005197247 0.0015558593 -0.0034288478 0.004941847 -0.001776225 -0.00060843833 0.006536306 0.0025020714 0.0031295172 0.0010748357 0.0048492444 -0.0066736555 0.006525558 -0.003216704 -0.0033033323 -0.0005699262 0.0004837061 -0.001351495 -0.00036147685 -0.0037794795 -0.00347227 -0.003290898 -0.0037566698 -0.0036535647 0.0056029726 0.0004886483 -0.0033579876 -0.0059967306 0.0019104662 -0.004258381 0.0003351217 -0.0028918134 0.0033940924 -0.0057986462 -0.004454036 0.003394036 -0.004861496 0.0010273654 -0.00056176574 0.0062048216 0.001512197 0.002820752 0.0018854489 0.00032121723 0.00052503607 -0.003427997 0.0021480033 0.0020814599 0.005849972 -0.001561256 -7.056964e-06 0.0011237671 -0.008201886 0.0011186863 -0.003457879 0.0019456289 -0.005775736 0.0031859274 0.0045642783 -0.0022509943 -0.0036392396 -0.006338354 0.0001227581 -0.0011624513 0.003474282 -0.0007540288 0.004309475 -2.9779125e-05 -0.0046106125 -0.0026191566 0.00045741393 -0.00166224 0.0043078926 -0.005319886
on -0.0012793441 0.0018890977 -0.0041386667 -0.0052391584 -0.0044993516 -0.0022306007 0.0032890337 0.003956127 0.0027564797 0.003265162 0.0038295314 0.000630114 -0.0025538467 0.0048304847 -0.0014804037 0.0027232887 -0.00022931906 0.0013748473 0.0013535424 -0.0046200682 -0.00058729906 -0.00020223421 0.0015801665 -0.004651423 0.004231443 -0.00068450155 -0.000955713 -0.0008864727 -0.006394518 0.0025451866 -0.0051644077 -0.005244451 0.0044222227 -0.0055420366 0.0014170881 4.448485e-05 -0.00020559644 -0.0043439814 0.00059843744 0.001954455 0.0013583216 0.00017260633 0.0017119325 -0.0061475215 0.0030413105 -0.0012519677 -0.00097244134 6.974268e-05 -0.0017907079 -0.0015551875 -0.0013863231 0.0061260397 -0.0005388734 0.0018574108 -0.002903545 0.0039958763 -0.0049424157 -0.004344604 -0.0023518335 -0.005243238 -0.00089156535 -2.3609122e-05 0.0018379891 0.0033216511 -0.003928371 -0.0025700883 -0.0021369488 -0.002829515 -0.007511409 0.00092716946 0.005663969 0.0012440253 -0.004444381 0.0007950403 0.0017700375 -0.00493337 0.0045198095 0.0051744916 -0.006219508 -0.00048523778 0.0018442745 -0.0014165991 0.0009459711 -0.00068976555 0.0029472348 0.0030620864 0.00041172825 -0.0022110846 0.0005791447 -0.0031996735 -0.0027724565 0.0029759593 -0.00086584623 0.0009941236 0.0049065887 5.9956776e-05 0.00209999 -0.00536171 -0.004843501 0.0022250405 -0.002761281 -0.001149262 -0.0039443783 -0.0024914246 -0.0020219248 -0.0018986122 0.0044020815 0.005292454 -0.0006996731 -0.00027140472 -0.0025825666 0.005126359 0.0006520278 0.006069737 0.0055298563 0.0063321423 0.0014327283 0.0022099246 0.0066054985 -0.004568952 0.00014669636 0.003045296 0.004364304 -0.001221775 0.0019130032 -0.0022771696 -0.004404944 -0.0024019792 -0.0019493019 -0.00065617624 -0.0018288619 0.001087873 0.0050752494 0.0029037197 0.004240845 -0.0013239235 -0.0003976633 0.0009678477 -0.0014339768 -0.006514158 0.0035697378 -0.0057047172 0.0011318688 -0.0024771485 -0.0038305514 0.00014250913 -0.00452932 0.0063054613 -0.0034451187 -0.005945341 0.0024077941 0.0007060187 0.0024645773 0.00026840257 -0.0014254848 -0.0040246127 0.0014704702 0.002377578 -0.00637782 0.0001223195 0.0012751352 0.0030846237 -0.004209008 -0.0012568582 -0.0017572815 -0.0002817952 0.004081241 0.0013702373 -0.0063438807 0.005785893 -0.0015898121 -0.0016835216 -0.004890091 -0.0032178585 0.0044077365 0.0022913555 -0.004570054 0.0026271362 -0.003474959 -0.008228677
or 0.0043459986 0.0028165528 -0.00088001805 0.0042389478 0.001535718 -0.0042869546 0.005451444 0.003656071 0.00019378927 0.0041295476 -0.003156721 -0.0009440748 0.0012030327 0.0032625666 -0.0018733034 0.004803492 -0.0018130192 -0.0073629906 -0.0060150344 -0.0033282086 0.006397605 -0.0030050417 -0.002158787 0.005318805 -0.002280473 -0.0017550181 0.002162302 -0.0029362345 -0.0028853484 -0.0032837267 0.002553931 -0.0040438054 -0.0012254857 0.0046491805 0.0013158249 0.0056898487 -0.0035994977 0.0031336867 -0.003955474 -0.0026221832 -0.0014572308 -0.0004433121 -0.0036366621 -0.0018191155 -0.0038293 -0.00023351828 -0.004142458 0.008905178 0.0029289937 0.00196898 -0.0019364549 0.0038661475 -0.0072654793 0.0021111977 0.0030132956 -0.00011308073 -0.0029750315 -0.008444265 -0.0031276417 0.001820219 -0.00056407455 0.0019833825 0.005917915 -0.003445865 -0.00013895282 -0.0021163535 -0.005078347 -0.002008545 0.0015209882 -0.0014915323 -0.0003639101 0.0056590177 -0.0055750827 -0.0032185644 0.0018488273 -0.0012811505 -0.0039096884 -0.001154042 -0.0074660503 0.0006036119 -0.0044742185 9.740261e-05 0.0032312435 0.00047338483 0.0043785353 0.0029491505 -0.0011764363 0.00042235438 0.0022492693 0.0026449377 0.008419824 -0.0025475963 -0.0015176992 -0.00011757065 0.0013383651 0.002581156 -0.002802735 -0.006229651 -0.001746523 0.00021859576 0.0011637999 -0.0006138476 0.0027601141 -0.0043940637 0.0048817224 0.0007297158 0.00016943285 0.0024122836 -0.00026161384 0.0011672009 0.0013991434 -0.004298265 0.0021933988 0.0019475088 -0.004653054 0.0058340663 0.0049757115 -0.0023339316 0.0074996497 -0.003627327 -0.0004980979 0.0024843593 -0.003349866 -0.0050631934 0.0049107997 -0.0019916098 0.00560575 0.0034781964 -0.0032711665 0.0035125802 0.003908174 -0.0020112947 -0.003787381 -0.007950819 0.0018195623 0.00024132746 0.00018135013 0.00013194945 -0.0045455704 -0.0046309843 0.0023801937 -0.0061392826 -0.006121862 0.00014842299 -0.00567705 -0.003099222 0.0016583363 0.006120111 -0.0036684887 0.0033878675 0.0044094934 0.00036945852 -0.0024842324 0.0040371814 -0.00345061 -0.0035282576 0.0017347444 -0.0068536415 -0.009405892 0.0033705106 0.004856535 -0.0036579939 -0.003095758 0.0036292018 -4.542403e-05 -0.005900185 0.0051380387 -0.0037940505 0.00011084637 0.0038247807 0.0046636965 0.0046681366 0.00430805 -0.004400797 -0.00019584228 0.00025710356 0.00018393666 0.006281615 0.0032313447 -0.008911064
they 0.006815168 0.00029621454 -0.00079937297 0.0023032553 -0.0046516475 -0.0011876656 0.0030341707 0.005431673 0.0015069892 -0.0013827727 -0.0042819157 -0.0019426205 0.0052926387 -0.005571472 0.0046482203 0.00010495686 -0.0002337049 0.003925314 0.0040944433 0.004178778 0.005556948 -0.0055981204 0.00443203 -0.0050095003 -0.0032700151 -0.0067494465 0.00050560606 0.0047852607 -0.005172615 -0.0026615774 -0.0015306298 -0.0034172558 0.00093011576 0.0021881226 0.0046085655 -0.0008399012 -0.0015891988 -0.0016272747 -0.0031473297 0.0031743285 0.0050948495 0.0048558656 -0.005702651 -0.00410011 -0.005458853 -0.002061781 0.0005194996 -0.0007466575 0.0005532005 0.006389969 0.0021533614 0.0011620026 0.003485263 0.004310853 -0.00040823937 -0.0027590503 -0.000922737 0.0017868478 0.0050915047 -0.0036327695 0.0038777885 0.0027741026 0.0032305112 -0.0023176332 0.0022415952 -0.0009658305 -0.0057973033 0.0046572536 -0.0064906343 -0.0033901336 0.003968221 0.0060253027 -0.0023156346 0.0029660738 0.0033832204 0.0026302077 -0.0029836905 0.003529928 -0.0061151795 -0.0024636758 0.0017998804 -0.0044881464 0.0043212646 -0.00088451384 -0.00021067203 -0.0047473386 -0.0040319595 -0.0014352703 0.0058028693 0.0021252786 -0.003435169 -0.0045088744 0.0013804924 -0.0038476968 0.0044689174 0.0071046515 -0.00642169 0.0041256584 0.0028574776 -0.0013997917 0.00035201162 -0.002564111 0.0030537476 0.003938903 0.0019482382 -0.00468366 0.0019120316 -0.0016767951 -0.0013946833 0.0033166509 0.001443194 0.0032021436 -0.0011350658 0.005031283 -0.0014970386 0.002275406 0.004854435 0.0014554082 0.006281619 -0.0037595085 0.001797615 0.0036733637 -0.0011744777 0.0023759764 -0.004952768 0.005921381 0.0025746678 0.0033314105 0.003341932 0.0018318623 -0.0014424083 -0.0024109157 -0.00089254923 -0.0010957065 -0.0017164171 -0.0069280183 -0.0025955192 0.004332556 0.005317118 0.0024060286 -0.0025669064 -0.00039964027 -0.0055885925 0.003389331 -0.00024694885 0.0044930526 -0.003711509 -0.00040287682 0.0020260278 0.0012106457 -0.003929111 -0.0053438023 0.001022412 -0.0059113246 0.0036661422 0.0022230188 -0.0017185842 -0.0046570855 -0.0069030276 -0.00010775548 0.004157838 -0.0004902432 -0.0048785293 0.005820861 -0.004974666 0.0023504125 0.004460558 -0.0005884398 -0.0058171167 0.0047191125 -0.0044749407 -0.002850516 0.0054019545 -0.004365779 -0.00495012 -0.0024430982 0.0017749487 0.0017550092 -0.0026005125 -0.0041261637
an 0.00584314 0.0062060566 0.004643163 0.00028069204 0.0013623093 1.4409528e-05 0.0026761626 0.0038189476 0.00056202285 -7.7552766e-05 -0.0015223704 -0.0032997373 0.004758239 -0.003517911 0.0008372838 -0.0003047085 -0.001757953 -0.0037336 0.0008860749 -0.0035672889 -0.0036472976 -0.0015909694 0.0029278467 0.0036450063 3.418658e-05 0.0026694664 -0.004689797 -0.0019821206 -0.0056869336 -0.004250514 0.0038209704 -0.0058312006 -0.0035933966 -0.005933728 0.007044065 -0.00065729156 0.0011608659 -0.003590587 -0.0023773827 0.00091824244 -0.0017306397 -0.003530099 -0.004621273 0.0010054674 -0.0055137267 0.0015367798 -0.0022930058 0.006778058 -0.0005544599 0.0046254755 -0.0036185188 -0.0038262282 0.0018316852 0.0011611541 -0.0024706419 -0.0009848917 0.0046315906 -0.006879865 -0.0013442312 -0.0006070105 -0.0013882732 0.0064406795 -0.0008346979 -0.003204468 -0.0044717146 -0.0063842456 -0.0047011203 -0.001925687 -0.0043755374 -0.0005972859 0.0016268208 -0.0019965998 0.00021640898 0.001372109 0.005526707 -0.0022974962 0.0032152536 0.004512553 -0.0032385767 -0.0041321795 -0.0027655272 -0.0036687693 0.0044170683 0.0060891625 0.004406174 -0.005213359 0.002352136 0.0030882652 0.00394686 -0.005220021 0.0016578753 -0.0045787552 -0.0053710244 0.0021422254 0.0061219265 0.0065243877 -0.0048169056 0.00067360577 -0.0033715947 0.005269047 -0.0054030516 0.0058659124 -0.0038805488 -0.0040607583 0.0005950939 -0.00013474895 -0.0053808256 -0.0003002134 -0.0004567739 -0.003551907 0.003611461 0.002202462 0.00658741 0.0057156035 -0.0033969018 0.004549928 0.004176284 0.00254725 0.004547257 -0.003912301 0.0022434897 0.0005083807 0.0005790202 -0.004125432 0.0010491261 0.0037222875 -0.00467426 0.0050045247 0.0022244866 -0.0005620368 -0.0015754406 0.000958293 0.0037358648 0.001175178 -0.0034478987 0.0027474894 0.00024730747 -0.0047531575 0.005012581 0.0020288373 0.0018144214 0.0037772204 -0.0047377613 -0.0035546902 -0.0015652569 -0.0019036648 -0.0013909126 0.0005686652 -0.004449409 0.0005692194 0.0010255795 -0.0015906786 0.0026059644 0.00019686513 0.0036762229 -0.0018854829 0.005040051 -0.0020574774 -6.598187e-05 -0.0013795997 0.003535117 0.0013383455 -9.2837174e-05 0.0054612234 -0.0046135043 0.004834892 0.0011450559 -0.0022829776 -0.0031031724 -0.0040961495 -0.0013812948 0.0013780126 0.003597925 0.005070858 -0.0053472747 0.0053043575 -0.0049917437 0.002579948 0.004798533 -0.0032608719
was -0.0024236832 -0.0033879976 -0.00075318164 -0.00091211963 -0.0069303457 0.00065461063 0.004210618 0.004335272 0.0014610784 0.0012601541 -0.0050187954 0.00332596 0.0031536506 -0.0046866024 -0.0021944488 0.000293707 0.00026407334 -0.0023666455 -0.004721041 -0.0006326881 0.0033987823 -0.00037904104 0.0008311387 0.001838987 -0.0006950692 -0.006774481 0.0041336087 -0.00426388 -0.003570702 -0.0022528328 -0.0046448866 -0.00010934727 0.0062987274 -0.0016191758 0.007642081 0.0012422119 -0.0022746897 -0.0015232131 -0.002031393 0.0048471848 0.0031775106 0.0042570047 -0.005382887 -0.004852393 0.0031304215 0.0029662135 0.0011129964 0.0040997323 0.0041095973 -0.0030467203 0.006085066 -0.003749529 -0.00270069 0.0043925582 -0.004408125 0.0031968304 -0.0042185173 -0.006649277 0.0023971235 -0.0006080466 -0.003686186 0.0061509386 -0.0033311902 0.0014324391 0.004556628 -0.00022736054 -0.004469303 0.004429241 -0.00487079 0.00069620734 0.004796249 0.0051181396 0.0024127623 -0.0038191273 0.006043453 -0.0027546887 0.004655936 -0.0035182987 -0.006027633 -0.0008928054 -0.00612999 -0.001868112 0.0010345171 0.0016471205 -0.0061352164 -0.004382487 -0.0048554637 0.00026760873 0.0042743078 -0.00096107693 0.008056618 -0.0033062235 0.0039792443 0.0047285305 0.0055453335 0.005015864 -0.0016044909 -5.9641225e-06 -0.007245528 0.0044722715 -0.0021399285 0.0049969302 0.00064563693 0.0014419607 -0.0009998309 -0.005057045 -0.00017258947 0.0016114973 -0.0057501784 -0.0023959647 -0.00083872676 -0.002201057 0.0053416765 0.0039267214 0.0026517077 -0.00037386516 -0.0014796274 0.0015264916 0.0065047094 0.0007929167 0.0024337624 -0.004358397 0.005645918 -0.0047535757 -0.0036070903 0.005994601 -0.0006551636 -0.004579649 -0.00076262 0.0022630708 -0.0012171229 0.0040813694 0.0009268375 -0.0003367094 0.0005809798 -0.0076400363 -0.00089530257 0.004414987 0.001106019 -0.0046803593 0.003613853 0.0033440352 0.0031757234 -0.00014491877 -0.005681003 -0.0011212195 0.0018744981 -0.002041963 0.0057922723 -0.006413804 -0.005180486 -0.0047642924 0.0031954348 -0.005350304 0.00550988 -0.0064000976 0.0023174651 -0.00030271686 -0.0031313705 0.006657292 0.0030959737 -0.0004544424 0.0020231043 0.0047378107 0.001300949 0.004298298 0.00050753617 -0.0062800697 -0.00402541 0.00089647644 -0.0044587953 -0.0010039336 0.004532769 -0.0025518485 0.0019476693 0.002865134 -0.00039105516 0.0014553934 0.0036727083 -0.006711205
sex 0.0037500844 0.006043268 -0.0032017606 -0.0046915687 -0.0066543883 -0.0060810633 0.004851035 0.0046904674 0.0029764299 -0.0012278815 0.0009794367 0.0020988355 -0.00496696 -0.005609555 0.0015934258 -0.004326321 -0.00147721 -0.0041479734 0.0019681652 -0.0026342687 0.006282639 0.00027798393 -0.0025777936 -0.001773727 0.0020289393 -0.0051470823 0.0033351937 0.006118109 0.0005293404 -0.005542865 -0.0036287804 -0.0010438833 0.0013709601 -0.0038496857 0.007510434 0.0047179903 -0.0017409326 0.00092125987 0.001269947 0.0025907778 0.0042331917 6.669141e-05 -0.005479499 -0.0010226209 -0.00506334 0.0069358973 -0.006690428 0.0023972674 -0.0019383407 0.0034859343 0.003173364 -0.00393515 -0.004222753 0.0012965687 0.0028042577 0.003597863 -0.0011483794 -0.0031040711 -0.003317056 0.0007540228 -0.0063538663 0.003690314 -0.0014848564 -0.0034412886 0.0035225104 -0.0016649637 -0.005841734 -0.003065733 -0.0013569517 -0.004217011 0.005076691 0.003029836 0.00049206475 -0.004249714 0.0052709486 -0.0045357896 0.004608274 0.00048762665 -0.0026507056 0.002185141 -0.0026854514 -0.0022782728 0.00012427526 -0.002119286 -0.00030094173 -0.003657878 0.0018744674 -0.004733247 -0.0011351289 -0.005944422 -0.0030959905 -0.0016287272 -0.0053060516 -0.002004728 0.0025620845 0.0036424964 0.00010200606 0.0037592321 -0.0072691427 0.002961793 -0.0050805802 0.004468602 0.003829185 0.004410123 -0.0048367777 0.0020950173 -0.0055955276 -0.0006506289 -0.0032268944 -0.004910261 0.0032912677 0.0032218033 0.00081250886 -0.001756651 0.002659757 0.00063641305 -0.0031836287 -0.0034207574 0.001386478 0.0029292847 -0.0037457438 0.003708745 0.004190303 -0.0037755098 -0.00069855433 -2.5351725e-05 0.0024630788 0.00028348985 -0.00048652577 -0.005966411 0.004100243 -0.0041675163 -0.0044265413 -0.0015548811 0.0014766811 -0.0025601035 0.0011671918 0.0011921675 0.0012583989 0.0029722517 -0.0021795093 -0.004922294 -0.0055707935 0.003852026 0.0005271525 -0.0029246442 0.00269405 0.006247264 0.004831561 -0.0046519875 -0.0032417697 -0.0028447309 -0.0038789182 0.0017635496 0.0035272974 -0.004411014 0.0043617873 -0.006130317 0.0007442587 -0.0014504477 0.0014544387 -0.0023200172 0.0012396051 0.0053024935 -0.0011088407 -0.0036528683 -0.00354721 0.0005177519 0.0011983382 0.0052172067 -0.002424409 -0.005617888 0.00379066 -0.0023028133 0.001648411 0.0048850453 -0.0025661173 0.0017519719 -0.0013619009 -0.006566001
this -0.002114462 0.0006596558 -0.0049504773 -0.0014825645 -0.0022630906 0.0029639087 0.0023151468 0.004291262 0.001475283 -0.0022993414 -0.0025541494 0.0056182067 0.0043363413 -0.005163286 0.0023376478 0.0046430742 0.005410277 -0.005462028 -0.002049519 0.00026601585 0.0021271668 -0.0009744918 -0.0023515946 0.0037943379 0.0046302225 -0.001596413 -0.0036340475 -0.0017220984 -0.0040582824 0.0014045418 0.00012808903 -0.0019865048 -0.003940336 -0.0013172388 0.0054559372 0.0042117513 0.0028638935 -0.0018124131 0.004024051 0.0011440712 0.0003624618 0.0038521166 -0.00482498 0.0030211296 0.0051811216 0.0028374244 0.0008003672 0.0043131947 -0.0012755349 -0.0034688772 0.0010816273 0.00094818114 -0.0049571153 0.0015710733 0.0033260197 -0.003541898 0.0012114558 0.0027364409 -0.0040308298 0.0009702103 -0.0058587263 -0.003458719 0.004340897 -0.0036668784 -0.0009786766 -0.005235656 -0.0046480796 -0.0026224235 -0.00087099744 0.0011671426 -0.0026319937 -0.00381639 -0.002669886 -0.0016420769 -0.0030548263 -0.0020577812 0.0023488216 0.0022308594 0.0026394634 0.0023044066 -0.0014516728 0.0016646011 0.0058025443 0.0019938913 0.00085282524 0.00025214854 -0.0055083814 0.0031800233 0.0036847342 -0.0006014337 0.0064674723 -0.0039312006 0.0014275791 -0.0037411903 -0.0043716882 0.0038229655 0.0017430184 0.0027422959 -0.0058652144 0.002117431 0.00082585774 0.0027362793 -0.000576795 0.0028776075 0.003792764 -0.0045364765 -0.0061604986 0.0040251818 -0.00073308515 -0.005237918 -0.0019920678 0.0010875004 0.006489354 0.000559389 -0.00018689597 -0.002376321 -0.0032356083 0.00015194352 0.0013372924 -0.0054320716 0.000444404 -0.005178468 -0.000763455 0.0017910757 0.0009122515 0.0050618686 0.0040327287 -0.00039186436 0.003232222 0.0028991676 0.005176765 0.0057142572 0.0031854305 0.001109779 0.0037812095 -0.0023525998 -0.0025475866 0.0046309885 0.0008899646 -0.003544904 -0.00059630396 -0.003340903 0.0043484024 0.0017050442 0.0020639685 0.004001967 0.004028346 -0.0016908734 -0.0031427804 -0.0025337092 -0.0023039833 -0.0062120887 -0.00036258635 -0.0051562604 0.005819644 -0.0023978124 -0.0030917581 -0.005648043 -0.0035513206 -0.00458979 0.0007026171 0.002851901 -0.0020535537 0.004851018 -0.0012007555 -0.004608781 -0.0010341217 -0.0026659437 -0.004765352 -0.004377724 -0.0024849067 -0.0009138502 0.0028108673 -0.004129249 -0.0031688493 0.00095518585 -0.00097217417 0.0024525048 -0.0007269854 0.00072160026
widowhood 0.0054572425 -0.0038216098 0.0012926518 0.0029795512 -0.0013958572 0.00309778 -0.0012418127 -0.001467998 -0.004948287 0.004957619 -0.0050777164 -0.0018379035 0.00010555803 -0.0029997868 0.00467541 -0.0037097647 -0.0042375745 0.0040056487 -0.005602157 0.0051899324 -0.0016851021 0.0032370687 -6.240631e-05 -0.001910486 -0.003238611 -0.0048277956 0.003211392 0.0042611044 -0.0011764753 0.002629348 0.0018840879 0.0014356603 0.0027012948 -0.005795253 0.0069296965 -0.003974857 -0.0010969713 0.00059934275 0.0020030572 -0.0043465397 0.0006049033 0.0039751567 -0.0060340734 0.0047180126 -0.0031384034 0.0061328174 -0.0046710344 0.0057227802 0.0050333315 -0.0041213483 0.0005010533 -0.0039653825 0.003518614 0.0058211144 -0.002929466 0.00096588774 -0.0013978936 -0.005913727 0.0010793726 -0.00639729 0.00021809184 -0.003258347 0.0034454702 0.004778649 -0.001496373 -0.0029006887 -0.005763911 0.0039795516 0.0003567372 0.0049280124 0.0036019734 -0.0010988805 0.0012379541 0.004163301 0.0055695255 0.0043639755 -0.004575764 -0.0036547096 0.0030671805 -0.004345991 0.0008543465 0.004565332 -0.00079336844 0.0047671758 -0.004764699 0.003154657 0.0027212466 0.0020544971 -0.0038516282 0.004562403 0.0058757174 -0.0015531273 0.0019541688 0.0042173215 -0.00043708415 0.0056654336 -0.003039299 -0.0012278049 -0.0016737861 -0.0025138478 -0.0008276556 -0.0038379428 0.00178751 0.0049365163 0.002579205 0.003758622 -0.0032197707 0.0028181751 -0.003759724 -0.0030427687 0.005759336 0.0039228667 -0.0009767087 -0.0017755626 0.004366744 0.003336952 0.0047807954 -0.004258608 0.001071701 -0.0018124398 -0.0001774895 0.0011281854 -0.003190919 0.0018348759 -0.0011968171 0.005339054 -0.00017387967 0.00550127 1.9906223e-05 0.0024201479 -0.0039508645 -0.004243971 0.0002891004 -0.0027940518 0.005567851 0.0011677477 -0.002414952 0.003733383 0.00040750246 -0.006028814 0.0030297034 -0.0016770276 -0.0056833206 0.0047541815 0.0036737516 0.0051142154 -0.00026556474 0.005187738 0.003042804 -0.0043413485 0.004896078 -0.0031381866 -0.0056071808 0.004045685 -0.0026209897 0.0042063394 -0.004040788 0.0040266514 -0.004993828 0.003014427 0.005719598 0.0020160265 -0.0015783589 -0.0021321427 -0.0056848507 0.0018523076 0.004888241 -0.0036063865 0.0025868455 0.004823949 -0.005278607 0.0009911702 -0.0037400124 -0.002277593 -0.00013531015 -0.0037336398 -0.0021686738 -0.0036200585 -0.0035917049 -0.0054975883
have 0.007174283 0.005748569 -0.001410486 -0.0019800325 0.002117146 -0.00029775803 -0.0023883989 -0.0021630812 -0.00049640064 0.003984319 0.0021607669 0.005809534 0.0043326593 -0.00021128869 0.0038270527 0.005245829 0.0048828614 0.003589017 -0.0064974027 0.0014693119 -0.0036053841 -0.0042141066 -0.004293056 0.0021463726 0.0013649404 -0.0056018205 0.0021299415 0.0053042374 0.00044658978 0.0029263545 -0.0026189717 -0.004636322 0.0040118857 -0.002320709 -0.0012251566 0.0030496165 -0.0010166405 -0.0032418936 -7.792767e-05 0.005087468 0.003044666 0.00086390524 0.0029690736 0.0008899844 0.0032735064 0.00081750914 -0.0005530546 0.00666536 -0.0059346957 0.005030723 0.0011328877 0.004148924 -0.002564121 -0.0006869292 -0.0025544125 -0.0009288314 -0.0017935367 -0.0054791854 0.0016437917 0.0028387965 0.0009789816 -0.0025377593 -0.0036845768 -0.0006676751 0.0018709628 -0.006418065 0.0027625607 0.003905371 -0.0032040186 0.0053355615 0.0073351543 0.001224088 0.0011890684 -0.006219481 -0.004182927 -0.001348978 0.005717938 0.0026425777 0.0014844848 -0.0038941351 0.0011648254 0.00032628182 0.00065432384 -0.00040993656 0.0025621403 -0.0058577484 0.0021611573 0.0035754535 -6.0414513e-05 -0.0033229638 -0.0018724245 -0.0048408164 -0.0035053422 0.002872441 -0.0015506712 0.003725518 -0.00637046 -0.002768852 -0.0021357758 -0.004813921 0.0010622909 0.0061147297 0.0020597023 0.0007736247 -0.0031331514 -0.0003494666 0.0004320065 0.0009853796 0.004605359 -0.00070221425 0.0044608056 0.0037544274 0.0047192057 0.006587619 -0.0023823825 0.0006370369 0.0055221976 0.0038763406 0.0042697624 -0.0042247963 0.004168665 0.0011663897 0.0006918481 0.0041827466 0.002786915 0.0034336853 0.00070105714 -0.0045540184 -0.00084363 0.00048193728 -0.0027987142 0.005136298 0.0048785238 -0.0071554394 -0.0033200001 -0.0056529567 0.000673818 -0.0015269351 -0.0009273343 -0.002390489 0.0017606836 0.004586248 -0.0035330204 -0.004846379 0.001474894 -0.0031023272 0.0028916686 0.002739 -0.004078229 -0.0050829044 -0.0058415355 -0.00032584986 0.0014000478 0.00043060796 0.0007397578 -0.00034973607 0.0022395398 -0.0027946678 -0.0072002043 0.00077604986 0.002348209 -0.001974113 -0.0018001513 -0.00021438146 0.0037086376 -0.002405175 0.0062066973 -0.0035278376 -0.0068735294 -0.0021424051 -0.0026214542 0.0005191095 0.0028802485 0.0013063569 0.0042616394 0.0011090817 0.0031130905 0.000819828 -0.00061781623 0.0007418056
it 0.0025158043 0.005523964 -0.005583191 -0.0053226 -0.0013652935 -0.0020515188 0.0008392946 0.0011909205 -0.0037458346 -0.0049906494 0.004818135 -0.0014875642 -0.0009747444 -0.0010840151 -0.001422883 -0.005055906 -0.0005884356 -0.0019714222 0.0035448251 -0.004820743 -0.0019827387 -0.0011350205 0.0019397686 -0.0029416673 -0.002062922 -0.0063378294 0.0025029986 -0.004043362 -0.0034178856 -0.001073165 0.0005627172 -0.0063423426 0.006273005 -0.0018528507 0.0025885552 -0.003967919 -0.0038993354 0.0017423881 0.0008669463 0.0027700565 0.002803605 -0.0032425392 -0.0021639832 -0.0022672561 -0.00097627373 0.0036618172 -0.00073587825 -0.0014111699 0.0015149537 0.004800124 -0.0030075875 0.0022284624 -0.0039314493 0.005526744 0.0027133536 0.0017184021 -0.0009040413 -0.0070948745 0.0057864455 -0.0023547867 0.0025873794 0.0031744756 -0.004004405 0.0004696392 0.0011771643 -0.0024657934 0.004989207 -0.00086184946 -0.005545137 0.0023606846 0.00045367455 -0.0029857024 4.745819e-05 0.001996803 -0.0024719262 -0.0020941976 -0.003734752 0.0016013401 -0.0040898747 0.004666932 -0.00095183094 0.0010371933 -0.0009050617 0.005329993 -0.0006198167 -0.00524188 -0.0045456523 0.0005134098 0.00545869 0.0006850611 -0.0009961231 -0.004700996 -0.0057408116 0.0030447952 -0.004505414 0.00550434 -0.00022865005 -0.0013064772 -0.0068929847 0.002909235 -0.0007243937 -0.004962579 -0.004449319 0.0045411736 0.00087125046 -0.004272097 -0.0012711595 0.0030418497 -0.005403296 -0.003848157 -0.00023756006 -0.0048254114 0.0027531434 0.0031145788 0.0051360093 0.0029001173 0.002185933 0.0019256272 -7.776811e-05 0.0024058307 -7.409403e-05 -0.0007344835 -0.004555783 -0.00040536013 0.0040677353 0.0019209406 -0.004032493 -0.0015251896 -0.0027841046 0.0026120902 -0.0031022853 0.0038407876 -0.002363999 -0.005749816 -0.004399042 8.523013e-05 -0.00412546 -0.0034691778 -0.003805307 -0.003374138 -0.0025408987 0.00015597465 0.0028700572 -0.00092146575 -0.0035522375 0.0014818292 0.0024691906 -0.0017836067 -0.0026428953 0.0022599811 0.002991871 -0.005626013 0.0044308444 -0.0064287675 -0.0035475683 -0.0039725937 0.0015082413 -0.0015118383 -0.00019562703 0.0049801865 0.0029611194 -0.0021421209 -0.004097008 -0.0037001728 -0.0004901855 0.0046585407 -0.0035383657 0.00067141344 0.0014625692 -0.0010025091 -0.0040367413 -0.0031788924 -0.0026951374 -0.00377009 0.0026754148 -0.00415664 -0.0016144997 0.0030340855 0.0005918423 -0.006602168
may -0.0013780803 0.002722763 0.00061045785 -0.0014276932 -0.0014449888 0.00070565287 0.0026195562 -0.00035096612 0.0022986615 -0.0045790467 0.0038405017 -0.0052676788 -0.00076931005 0.003482029 -0.0026259804 0.0036961639 0.003266268 -0.005257183 -0.0010788133 -0.0028917587 -0.003909185 -0.0006678893 0.003805662 0.005034973 -0.0019741817 -0.003005951 -0.0039202115 0.0013130927 0.00017346929 -0.006447563 0.0011237159 -0.0055575003 0.0014583508 0.002079917 -0.0008818038 0.0009170936 -0.0007744992 -0.005100954 -0.0024954004 0.003233555 -0.0050778673 -0.0027659854 -0.0015672316 0.004008674 0.0005200448 0.0063873027 -0.005455045 0.007318923 -0.0029266304 -0.0023547264 -0.004051072 0.0014900197 -0.002685056 0.0048036575 3.8204427e-05 0.001882362 0.003068626 -0.006531765 -0.00043285085 -0.0038068027 -0.0061030653 0.0030412106 0.0016363475 -0.00070943864 -0.0011875703 -0.0045891656 -0.002289651 0.0022346473 0.0030337474 0.0040174923 -8.0510355e-05 0.0027107878 -0.0024098968 -0.0032642942 -0.0015580326 -0.0030820428 0.002340253 -0.003788168 -0.0052548684 -0.002493018 0.0031981475 0.0010161519 0.003863184 0.0054878015 -0.0036630302 -0.0031132791 0.0038595523 0.0029873906 0.0034678401 0.0043312083 0.006370096 -0.002249785 0.00020450972 0.0037554146 0.0055718413 0.008453975 -0.005593449 -0.003415994 0.001578133 0.00018723334 -0.00035348284 0.0045994734 0.0032175493 -0.004178196 -0.001644214 -0.004436728 0.0032563568 0.0014990247 -0.001544143 0.000993686 0.004552097 0.0049419138 0.0053323903 0.0034333689 0.0012149328 0.0064161248 0.0017434442 -0.00044590136 -0.0035989191 7.6383745e-05 -0.004735231 0.0032603107 -0.002536779 -0.0015511463 0.0007737886 -0.00021997155 -0.004579197 0.0025316852 -0.0029807508 -0.005523462 0.002463424 0.0003656376 0.004044081 -0.0054144375 0.0004330036 -0.0020739252 0.0038123978 -0.0056067356 0.0034557923 -0.0057898834 -0.004441693 -0.00021936446 -0.0021742547 -0.002350128 -0.0032947361 0.002665281 -0.005735756 0.0016895686 0.0026383237 -0.00078544364 -0.0006393191 0.0028821458 -0.005364037 -0.0056323754 0.0028341115 0.0042315223 -0.003970551 -0.005961345 -0.002190568 -0.0041977423 0.0013470395 0.004827161 -0.003757098 -0.003029117 0.0047064032 -0.0010720936 -0.0012988797 -0.002471328 -0.0056866566 -0.0014907854 -0.0023850515 3.0664713e-05 0.0004665616 0.004285966 0.0032220767 -0.0005239375 -0.0055269934 0.0019404424 -0.0030192374 0.0032672477
that 0.0035006304 0.00038533614 0.0027227337 -0.0022722129 -0.0032292013 -0.0010409665 0.006881986 0.0047280127 7.6558536e-05 0.0017070235 -0.0012527294 0.0053154277 -0.0034627137 -0.0019876235 -0.0036792296 0.0048188544 -0.0014825874 -0.0026002487 0.0028406833 -0.0057686423 -0.0009999463 0.0014557296 -0.0031819982 0.0053410837 0.0016646918 -0.0045937835 0.0020982928 0.0051438496 -0.001080366 0.0026707938 -0.004109528 -0.0028003817 0.0069040693 0.002575316 0.0031295994 -0.0011497991 0.0029894202 0.0010600499 0.003365682 0.0009358015 0.0041987044 -0.002594365 -0.0057801413 -0.0013370758 0.0014401342 7.046871e-05 0.0018268153 -0.0018959349 -0.0053428337 0.0057925186 0.0038461676 -0.0017513118 -0.0036451996 -0.0012618091 0.00042402276 0.0056621954 0.00031126972 -0.0032304712 -0.0010496393 -0.0024817162 -0.0066660764 0.0051086466 -0.004706093 -0.00091196527 -0.004261083 0.003956819 0.0027507998 0.0016625125 0.00065695733 -0.0012445721 0.007832798 -0.0012953376 0.0014561104 -0.0029892302 0.0059216805 0.005559041 0.003865293 0.00046828313 -0.0021921333 -0.0048650997 0.004030011 -0.0047214883 -0.0027664131 0.0042303223 -0.0016481509 0.0037109738 -0.0049121524 0.005493626 0.0022327036 -0.0055245883 0.0040997267 -0.0035991843 0.0031539453 0.0045215725 -0.004109395 0.0072227553 0.0018783463 0.0028425409 -0.005177687 -0.0040121856 -0.0054871147 0.0034803974 -0.0025548013 0.0024973154 0.0023302515 0.004891573 0.0007172428 -0.0006419033 0.0004802698 0.0015652018 -0.004490594 -0.0028791276 0.0016686902 0.0047726776 6.6345405e-05 -0.0029350764 0.0010405852 0.003224364 0.0055040866 0.0002479349 -0.0028003769 -0.0024706633 -0.00044227586 -0.00399231 -0.0044452283 0.00068089244 0.0014793033 0.0030304356 0.0026076443 0.0040309355 -0.0034280198 0.0060704253 -0.001261676 -0.0012657726 -0.0024959978 -0.0041354755 -1.219058e-05 -0.004574087 0.00506877 0.001535979 -0.001450814 0.00041125767 0.0037145775 -0.0032944093 0.0015990477 0.0009462168 0.0009937346 -0.000118473414 -0.0052258354 0.0026017365 -0.0012901077 -0.00589603 0.00028925523 -0.004240288 0.0047082715 -0.0043538674 -0.0005479414 -0.0017876372 -0.0047484105 -0.0010119574 0.0041509937 0.00043436547 -0.005596129 0.0008086397 -0.0055488 -0.0024555605 0.003558734 0.00093731994 -0.0042559295 0.0020606644 0.0031059098 -0.004240369 -0.0018091456 -0.0012004499 -0.0056046927 0.0015053491 0.003491496 0.0020066935 0.0017446837 -0.002720787
some 0.0007065534 -0.0026679728 -0.001129098 0.0033682222 0.00063272857 -0.0004393599 0.0061666416 0.002559715 -0.0047281864 0.0037491436 0.0055558216 -0.0049361703 0.0044233724 -0.0044822968 -0.0008766423 0.002712234 -0.0029278405 -0.0055282307 -0.0051192283 -0.0058466243 -0.003175048 0.005398902 0.0019076274 -0.0048347306 0.005565238 0.002601161 0.0038049691 0.0062083867 -0.0062571717 -0.002201923 0.00095900346 0.00059301563 0.003929973 -0.0047758766 0.004654457 0.0061811623 -0.0045273593 0.0041610054 0.00073780364 -0.0015111809 -0.0011886156 -0.004340161 -0.005432072 0.002370652 -0.0020080698 0.0064187767 -0.0055868034 -0.0016776717 0.00319435 0.005551635 0.002371261 0.004543981 0.0025560837 -0.002589144 0.00512852 -0.0030527192 -0.0018491723 -0.005085294 0.004060756 -0.003515237 0.00046933704 0.00014610167 -0.00045856007 -0.0027195266 -0.003386926 -0.0029371257 -6.8466084e-05 0.0022361071 -0.003146033 0.001214617 -0.0012557382 0.0061337953 -0.0014302924 -0.004566619 -0.0005660229 0.004713707 -0.000375964 -0.0023251532 -0.0055353944 -0.0034474418 -0.0027774991 0.004438737 -0.0030357586 0.0017623998 -0.00030031934 0.00176742 -0.0048154 0.004700626 -0.00071679224 0.0023522964 -0.0038353123 0.0020479858 -0.005067814 -0.0011587733 -4.441341e-05 0.00096528727 -0.0013884543 -0.00066973746 0.0013523742 -0.0015246433 -0.0027854673 -0.0029442906 0.0043397453 0.0024693992 0.004818228 0.003254984 -0.003230572 0.0046690274 -0.004005443 0.0015126274 -0.0015048464 0.0006427209 0.0040446017 -5.055299e-07 -0.0020968365 0.00080642645 0.0014992837 0.002938263 -0.0015269027 0.0011825986 -0.0021561885 -0.0046208366 -0.002496772 0.0004826937 0.0052100676 0.00525596 0.005526926 0.0042452402 -0.0011003772 -0.0020529637 0.0051974654 0.004430915 0.003877246 0.0023294394 0.00075132167 -0.00020356735 -0.003870818 0.0038933537 0.005381985 -0.004625369 0.00042262877 0.0042975787 0.0014111059 0.0035904655 0.003920742 -0.00072610285 0.004412893 0.0043205214 -0.0007404915 -0.00041762515 0.0050235144 0.0021694012 -0.0036794092 -0.0025484185 -0.0015782276 0.0011969244 0.000958647 -0.005992335 -0.0006613306 0.0061434866 0.0016499625 0.002176029 0.00061941054 0.0051587815 0.004699212 0.0012337159 -0.0004859992 0.0009893032 -0.005074111 0.0055255443 -0.0023667885 0.0054328833 -0.005349544 -0.0012497132 0.004402694 -0.0019821874 -0.0012460961 0.0034268678 0.0055397656 -0.002042397
often -0.0017366827 0.0068054055 -0.0067510246 -2.3638264e-05 0.001327354 -0.0057056723 7.846289e-05 -0.0030629612 -0.0014083335 0.0019951393 -0.003936997 -0.0013033926 0.005482512 -0.0029628377 0.00072798756 0.0021748543 -0.0015340027 -0.0048912303 0.0029306968 -0.002231149 0.005899365 -0.0012840213 0.0020311018 0.0036241985 0.0018069713 -0.0002097075 -0.004219295 0.005829968 -0.0032849894 -0.0043336498 0.0023940848 0.0041950257 -0.0010225123 -0.0005063524 0.0060490817 -0.00016729074 0.001190415 0.0044434723 0.0024715138 -0.0019506253 -0.0024974907 0.0059979907 -0.0024657368 -0.0062262025 -0.000916142 -0.002066209 -0.0016935732 0.004447839 -0.002776334 -0.0005533268 0.0053653 0.0034453236 -0.0007473436 0.0020632292 0.005228783 -0.0018859793 0.002896351 -0.0035602225 -0.002820911 -0.0071950327 -0.0032333708 0.0063579204 0.0020091448 -0.0039420347 0.00027113734 -0.0033998012 -0.0029886072 0.0070275986 0.0010700994 0.00054270413 0.0047746478 0.0016678061 -0.0071321893 0.00024125847 0.0048841108 0.002726391 0.001957897 -0.0008585964 -0.0007556204 -0.004239714 0.0005280602 0.0014809625 0.0012724735 0.0014932918 0.0010928115 0.00027903292 -0.000101652426 0.0055184015 0.0037063619 -0.0004958851 0.0010550871 -0.0046717986 -0.0059511038 -0.0004811602 0.0036068365 0.009425654 -0.0013080484 -0.0038786884 -0.00015546859 -0.0026707815 -0.0013516694 0.005741665 0.004065784 -0.0005822343 -0.0037068306 0.0023285542 0.004186644 0.0049431985 -0.0014057627 0.003919711 0.005657019 -0.004541695 0.008665855 0.003038416 -0.0021529004 0.0054864627 0.006854626 -0.005130178 0.0069235493 -0.0058884774 -0.0043853335 0.0024798298 -0.0012185964 0.0017747486 0.004631866 0.006854143 0.0039132545 -0.0042727045 0.0027942571 -0.00624282 0.00041414678 0.0067483247 -0.0019891092 -0.00058823987 -0.003515038 -0.007335209 0.005619174 0.0014980248 0.0042591477 0.0003235507 0.00029030823 0.0012539614 -0.0059143053 0.0031927605 -0.003040093 0.0032893212 -0.0039904206 0.0024495376 0.002809528 -0.0024934097 -0.004712512 -0.005537291 -0.00558547 0.004145134 -0.0017130228 -0.0016977597 -0.004293488 -0.0048329094 -0.0058743563 0.0031150267 0.0034639717 0.0015491337 0.004657546 0.00221908 0.0051247785 0.0031419022 0.0027669119 -0.00063369266 -0.0055891094 0.00063634105 0.00285349 -0.0046430337 0.0013165012 -0.0042390055 0.0044257874 0.00027902788 0.0005410504 -0.0018397406 0.004057199 -0.007373797
your -0.002534931 0.0047757775 -0.0028996926 -0.0010130028 0.0017094006 0.0015793248 0.0058744014 0.00542572 0.0022386245 -0.0053654914 0.003286836 0.005255988 -0.0014839747 0.00031404832 -0.0025905613 -0.001817542 0.0053405603 -0.0016522872 0.0006376545 -0.0034765657 0.0041597127 -0.001997424 -0.0023027277 0.0016290586 0.00669972 -0.0054961317 0.0011992389 0.00033368543 -0.005753488 -0.0036856763 -0.004935791 0.0022474094 3.6345155e-05 -0.0036587368 0.0032097888 0.0033852605 0.0060408334 -0.005821811 -0.0015935389 0.00037763786 -0.0018363775 0.00037959058 0.0028155926 -0.0017827674 0.0049166544 0.0015263781 -0.0020152538 0.0070072496 0.0034788102 0.001753842 0.0002692795 0.0042601954 -0.0037818807 0.0032105122 0.0004916162 -0.002508067 0.0032314588 -0.0045889625 0.002406053 -0.0052628815 -0.00017541181 0.0044928254 0.0031665775 -0.0035679364 -0.0035546143 0.0027993924 0.0012715657 0.0027211946 -0.005199472 -0.0006267568 -0.0024948516 0.0016178547 -0.003868351 -0.00058147154 0.0030607039 0.0016904697 -0.0035932662 0.0011379016 -0.0051570586 -0.0022978357 -0.00017988878 0.004467195 -0.0026772122 0.0027051552 0.00424337 0.0048011034 0.002718041 -0.003854707 0.0032138533 0.0042748004 0.0043278146 0.00037880678 -0.0013270021 0.0030794241 0.0032129686 0.008935355 -0.0032320726 -0.0055089467 0.0022981174 -0.004031266 -0.0009863722 0.001467238 -0.0010923648 -0.0025685492 0.00011099296 -0.0052136932 5.776588e-05 -0.0023737878 -0.0035389431 0.002073638 0.0013144375 0.002486068 0.0031877889 -0.0032146743 0.00585931 0.0005351517 0.00025081792 0.003134681 0.0022342647 -6.971473e-05 0.0011292999 0.00086811424 0.00478208 0.004568823 0.00012295072 -0.0008501863 0.003145932 -0.0041992553 0.0055865375 0.0004554955 0.0036454708 0.002641892 3.2212825e-05 -0.0015971196 -0.0026926135 0.002995652 0.0037811457 0.0016281947 -0.0026684175 -0.0058789034 0.004181271 0.0010861459 -0.0031397243 -0.004950546 -0.0025141358 0.0013794544 -0.0058127353 0.0013269827 0.0020368837 -0.0063751196 -0.00068840996 -0.0048161955 -0.0020489655 -0.0015502338 -0.0048198537 -0.002775643 -0.0035073708 -0.005903741 -0.001690696 0.0024549079 0.0053413473 0.0046603982 -0.004212477 -0.004195418 0.0041801445 0.002179967 0.0048624543 -0.0028819218 -0.004103491 -0.0010219329 -0.0049138563 0.003280913 -0.0018128827 0.005058095 -0.0040385216 0.0056994786 -0.0025123516 0.005370167 -0.0025346412 -0.006582046
